tree
version=v4
num_class=1
num_tree_per_iteration=1
label_index=0
max_feature_idx=26
objective=quantile
feature_names=total_points_mean_3 expected_goals_mean_3 expected_assists_mean_3 defensive_contribution_mean_3 minutes_mean_3 qualifying_games_3 total_points_mean_5 expected_goals_mean_5 expected_assists_mean_5 defensive_contribution_mean_5 minutes_mean_5 qualifying_games_5 total_points_mean_10 expected_goals_mean_10 expected_assists_mean_10 defensive_contribution_mean_10 minutes_mean_10 qualifying_games_10 chance_of_playing_next now_cost has_news news_injury_flag news_suspension_flag position fdr num_fixtures is_home
feature_infos=[0:17] [0:1.7266666666666666] [0:0.74333333333333329] [0:20.333333333333332] [0:90] [0:3] [0:17] [0:1.3219999999999998] [0:0.68999999999999995] [0:19] [0:90] [0:5] [0:17] [0:1.1799999999999999] [0:0.68999999999999995] [0:16.100000000000001] [0:90] [0:10] none [37:145] none none none [1:4] [1:5] [1:2] [0:1]
tree_sizes=2357 2734 2707 2727 2800 2807 2836 2865 2878 2874 2858 2833 2852 2856 2844 2846 2837 2861 2838 2859 2854 2841 2859 2865 2857 2864 2861 2884 2848 2887 2852 2864 2889 2860 2863 2858 2891 2867 2848 2851 2864 2850 2862 2858 2885 2876 2856 2865 2879 2833 2867 2864 2865 2856 2882 2864 2865 2879 2888 2867 2886 2898 2872 2893 2888 2888 2891 2868 2877 2896 2881 2894 2855 2882 2857 2876 2889 2852 2877 2859 2864 2891 2903 2898 2907 2904 2917 2915 2902 2891 2878 2878 2865 2910 2906 2877 2907 2905 2916 2895 2890 2876 2914 2923 2894 2888 2859 2884 2885 2896 2908 2898 2939 2870 2889 2893 2895 2883 2898 2906 2861 2901 2885 2907 2911 2886 2889 2905 2921 2934 2958 2910 2908 2918 2937 2888 2873 2903 2892 2911 2905 2907 2885 2854 2911 2917 2907 2923 2863 2910 2907 2909 2909 2924 2914 2885 2876 2896 2870 2915 2916 2927 2907 2923 2903 2891 2921 2917 2927 2933 2924 2922 2912 2935 2934 2891 2905 2917 2908 2915 2927 2938 2901 2939 2909 2900 2920 2942 2907 2926 2907 2900 2913 2913 2902 2908 2919 2897 2928 2912 2908 2912 2919 2932 2923 2917 2892 2928 2920 2887 2920 2939 2880 2899 2916 2900 2900 2899 2900 2939 2894 2898 2917 2899 2928 2908 2907 2913 2935 2929 2892 2913 2901 2903 2909 2909 2937 2915 2941 2916 2924 2907 2910 2903 2897 2925 2896 2904 2912 2922 2926 2946 2942 2949 2903 2904 2924 2913 2928 2888 2922 2933 2921 2883 2934 2924 2928 2911 2898 2904 2904 2924 2909 2919 2940 2895 2939 2912 2937 2935 2908 2935 2915 2920 2923 2892 2901 2931 2926 2928 2905 2917 2904 2926 2937 2908 2902 2922 2917 2920 2917 2918 2906 2899 2909 2879 2903 2907 2917 2891 2932 2894 2936 2949 2942 2925 2927 2935 2919 2922 2891 2943 2934 2913 2934 2905 2896 2915 2923 2906 2914 2911 2923 2914 2933 2929 2921 2923 2932 2935 2919 2929 2944 2920 2916 2883 2880 2898 2913 2907 2895 2955 2930 2918 2940 2931 2949 2938 2916 2931 2913 2921 2908 2931 2936 2918 2949 2927 2917 2907 2904 2950 2915 2956 2936 2870 2901 2928 2895 2902 2912

Tree=0
num_leaves=31
num_cat=0
split_feature=5 17 4 19 4 19 23 10 4 0 19 9 9 7 15 12 11 6 6 2 15 10 4 8 19 19 8 0 10 4
split_gain=625.881 53.422 27.8378 18.243 13.2532 14.1478 12.4596 14.2918 6.21963 6.11111 5.93892 5.20433 6.21602 4.68833 5.58478 4.56516 4.13696 4.11954 3.66781 3.59685 3.33333 3.29475 3.37609 3.28538 3.00887 2.81644 4.69127 3.1165 3.46822 3.66213
threshold=2.5000000000000004 7.5000000000000009 1.0000000180025095e-35 73.500000000000014 80.833333333333357 45.500000000000007 2.5000000000000004 78.550000000000011 88.583333333333357 5.5833333333333348 54.500000000000007 4.5500000000000007 10.100000000000001 0.27100000000000007 4.4142857142857155 4.8660714285714297 4.5000000000000009 4.1000000000000005 6.7750000000000012 0.038333333333333344 4.1833333333333345 87.90000000000002 81.500000000000014 0.045500000000000013 43.500000000000007 50.500000000000007 0.10300000000000002 2.5833333333333335 86.100000000000009 83.166666666666671
decision_type=2 2 2 2 2 2 2 2 2 2 2 2 2 2 2 2 2 2 2 2 2 2 2 2 2 2 2 2 2 2
left_child=2 6 -1 4 15 8 10 17 -6 13 16 -7 18 14 -9 -3 -2 -8 25 -10 -19 22 -16 -21 -18 26 -13 -27 29 -29
right_child=1 3 -4 -5 5 11 7 9 19 -11 -12 12 -14 -15 21 -17 24 20 -20 23 -22 -23 -24 -25 -26 27 -28 28 -30 -31
leaf_value=0.94999999999999996 1 1.05 1 1.3 1.05 1.25 1.05 1 1.1000000000000001 1.1499999999999999 1.25 1.1499999999999999 1.1499999999999999 1.2 1.1000000000000001 1.1375 1 1.05 1.05 1.25 1.1125 1.1499999999999999 1.05 1.1499999999999999 1.05 1.25 1.05 1.1499999999999999 1.25 1.05
leaf_weight=6396 427 481 1061 285 180 326 577 86 392 69 40 297 408 55 80 46 242 60 83 30 60 69 181 114 225 116 110 49 318 124
leaf_count=6396 427 481 1061 285 180 326 577 86 392 69 40 297 408 55 80 46 242 60 83 30 60 69 181 114 225 116 110 49 318 124
internal_value=0.998877 1.01162 0.989424 1.01557 1.01445 1.01595 1.00551 1.0088 1.00999 1.01491 1.00115 1.01828 1.01703 1.01287 1.01106 1.00723 1.00031 1.00407 1.01508 1.01269 1.0125 1.01402 1.01145 1.01944 1.00356 1.0159 1.01268 1.01806 1.01632 1.01062
internal_weight=12987 5530 7457 3359 3074 2547 2171 1237 716 540 934 1831 1505 471 416 527 894 697 1097 536 120 330 261 144 467 1014 407 607 491 173
internal_count=12987 5530 7457 3359 3074 2547 2171 1237 716 540 934 1831 1505 471 416 527 894 697 1097 536 120 330 261 144 467 1014 407 607 491 173
is_linear=0
shrinkage=1


Tree=1
num_leaves=31
num_cat=0
split_feature=5 17 19 19 4 19 23 10 4 4 0 19 3 9 9 7 3 12 4 11 6 6 2 10 23 19 19 8 4 19
split_gain=525.183 53.422 24.3463 18.243 13.2532 14.1478 12.4596 14.2918 6.94652 6.21963 6.11111 5.93892 5.93866 5.20433 6.21602 4.68833 5.46341 4.56516 4.27049 4.13696 4.11954 3.66781 3.59685 3.58847 3.53523 4.55004 5.11825 3.28538 3.25674 3.50556
threshold=2.5000000000000004 7.5000000000000009 46.500000000000007 73.500000000000014 80.833333333333357 45.500000000000007 2.5000000000000004 78.550000000000011 77.416666666666671 88.583333333333357 5.5833333333333348 54.500000000000007 2.4166666666666674 4.5500000000000007 10.100000000000001 0.27100000000000007 7.166666666666667 4.8660714285714297 81.500000000000014 4.5000000000000009 4.1000000000000005 6.7750000000000012 0.038333333333333344 86.291666666666671 3.5000000000000004 51.500000000000007 54.500000000000007 0.045500000000000013 86.833333333333357 52.500000000000007
decision_type=2 2 2 2 2 2 2 2 2 2 2 2 2 2 2 2 2 2 2 2 2 2 2 2 2 2 2 2 2 2
left_child=2 6 12 4 17 9 11 20 24 -6 15 19 -1 -7 21 16 18 -3 -9 -2 -8 -15 -11 -18 -4 -26 -27 -24 -10 -30
right_child=1 3 8 -5 5 13 7 10 28 22 -12 -13 -14 14 -16 -17 23 -19 -20 -21 -22 -23 27 -25 25 26 -28 -29 29 -31
leaf_value=-0.047500000000000001 0 0.047500000000000001 -0.047500000000000001 0.28500000000000003 0.047500000000000001 0.23750000000000002 0.047500000000000001 0.19750000000000001 0.050000000000000003 0.095000000000000001 0.14250000000000002 0.23750000000000002 0 0.14250000000000002 0.14250000000000002 0.19 0.095000000000000001 0.13062499999999999 0.047500000000000001 0.047500000000000001 0.094375000000000001 0.047500000000000001 0.23750000000000002 0.14250000000000002 -0.047500000000000001 0.0025000000000000022 -0.047500000000000001 0.14250000000000002 0.125 0
leaf_weight=4636 427 481 1897 285 180 326 577 55 51 392 69 40 306 1014 408 55 143 46 159 467 120 83 30 59 145 88 172 114 47 115
leaf_count=4636 427 481 1897 285 180 326 577 55 51 392 69 40 306 1014 408 55 143 46 159 467 120 83 30 59 145 88 172 114 47 115
internal_value=-5.29376e-05 0.011623 -0.00871161 0.0155738 0.0144519 0.0159452 0.00551013 0.00880154 -0.00470676 0.00998603 0.0149074 0.00115096 -0.0107497 0.0182755 0.0170349 0.0128715 0.0110577 0.00723435 0.00549065 0.000307606 0.00407102 0.0150752 0.0126866 0.0169554 -0.00550608 -0.00126543 0.00269231 0.0194444 0.00393192 0.000462963
internal_weight=12987 5530 7457 3359 3074 2547 2171 1237 2515 716 540 934 4942 1831 1505 471 416 527 214 894 697 1097 536 202 2302 405 260 144 213 162
internal_count=12987 5530 7457 3359 3074 2547 2171 1237 2515 716 540 934 4942 1831 1505 471 416 527 214 894 697 1097 536 202 2302 405 260 144 213 162
is_linear=0
shrinkage=0.05


Tree=2
num_leaves=31
num_cat=0
split_feature=12 17 19 19 19 4 19 2 3 4 6 13 16 6 12 17 2 4 4 19 23 19 19 2 8 13 4 8 12 12
split_gain=533.367 59.2977 18.3286 18.315 15.219 13.1594 14.4559 7.9174 7.8716 6.39275 6.34639 6.22957 5.88825 7.24625 4.56516 4.35991 4.02988 3.98309 3.859 3.55818 3.33569 4.11543 7.53762 3.20867 3.13147 3.02689 4.12688 3.85582 2.9197 2.79352
threshold=1.5277777777777779 7.5000000000000009 45.500000000000007 73.500000000000014 47.500000000000007 80.833333333333357 45.500000000000007 0.0041666666666666675 7.416666666666667 88.583333333333357 4.1000000000000005 0.06316666666666669 89.118055555555571 6.5500000000000007 4.8660714285714297 4.5000000000000009 0.015833333333333335 81.500000000000014 62.416666666666679 66.000000000000014 3.5000000000000004 51.500000000000007 54.500000000000007 0.038333333333333344 0.047750000000000008 0.0038750000000000004 78.416666666666671 0.017083333333333336 5.9500000000000011 2.8944444444444448
decision_type=2 2 2 2 2 2 2 2 2 2 2 2 2 2 2 2 2 2 2 2 2 2 2 2 2 2 2 2 2 2
left_child=2 4 16 5 25 14 9 20 10 -7 18 15 28 -14 -3 17 -1 -10 -6 -12 -4 -22 -23 -11 -25 -2 -27 -28 29 -8
right_child=1 3 7 -5 8 6 12 -9 11 23 19 -13 13 -15 -16 -17 -18 -19 -20 -21 21 22 -24 24 -26 26 27 -29 -30 -31
leaf_value=-0.045124999999999998 0 0.045124999999999998 -0.045124999999999998 0.27074999999999999 0.0023749999999999995 0.045124999999999998 0.13037499999999999 0.047500000000000001 0.048718750000000005 0.090249999999999997 0.052374999999999998 0.13050000000000003 0.22562500000000002 0.095125000000000001 0.12409375 0.092749999999999999 0 0 0.040250000000000001 0.135375 -0.045124999999999998 0.0023750000000000051 -0.045124999999999998 0.22562500000000002 0.135375 0 0.145125 0.045124999999999998 0.230375 0.13037499999999999
leaf_weight=4660 405 481 1516 285 34 177 141 53 64 391 323 189 674 56 46 104 116 103 1071 48 120 69 158 32 109 218 81 304 57 902
leaf_count=4660 405 481 1516 285 34 177 141 53 64 391 323 189 674 56 46 104 116 103 1071 48 120 69 158 32 109 218 81 304 57 902
internal_value=0.000555363 0.0110028 -0.00927227 0.0155513 0.00582541 0.0144243 0.0159167 -0.00514092 0.00841942 0.00985543 0.00663957 0.0141304 0.018265 0.0217466 0.00723435 0.00927122 -0.0109296 0.00426647 0.00473982 0.0122978 -0.00568304 -0.00126081 0.00269824 0.012594 0.0190603 0.000843254 0.00308872 0.0062013 0.0159545 0.0153523
internal_weight=12987 6295 6692 3351 2944 3066 2539 1916 1936 709 1476 460 1830 730 527 271 4776 167 1105 371 1863 347 227 532 141 1008 603 385 1100 1043
internal_count=12987 6295 6692 3351 2944 3066 2539 1916 1936 709 1476 460 1830 730 527 271 4776 167 1105 371 1863 347 227 532 141 1008 603 385 1100 1043
is_linear=0
shrinkage=0.05


Tree=3
num_leaves=31
num_cat=0
split_feature=12 17 19 19 19 10 9 19 19 16 11 12 14 8 16 12 12 2 9 23 19 19 13 19 6 3 13 7 5 8
split_gain=516.37 73.8595 18.243 15.4759 13.266 11.4328 8.22568 7.93395 7.5565 6.70616 10.8922 8.99437 5.48036 5.92482 5.46763 5.19801 3.37618 3.37301 3.3227 3.30659 4.11543 7.53762 3.12494 3.83135 3.24721 3.60231 3.11123 4.2677 2.9605 2.84198
threshold=1.1000000000000003 7.5000000000000009 73.500000000000014 45.500000000000007 46.500000000000007 89.100000000000009 10.550000000000002 59.500000000000007 50.500000000000007 77.828571428571436 4.5000000000000009 2.2678571428571432 0.04354166666666668 0.041000000000000016 81.816666666666677 6.2750000000000012 2.1055555555555561 0.081666666666666679 12.900000000000002 3.5000000000000004 51.500000000000007 54.500000000000007 0.023166666666666672 49.500000000000007 3.4500000000000006 8.4166666666666696 0.19292857142857148 0.13100000000000006 1.0000000180025095e-35 0.14450000000000005
decision_type=2 2 2 2 2 2 2 2 2 2 2 2 2 2 2 2 2 2 2 2 2 2 2 2 2 2 2 2 2 2
left_child=3 4 5 28 -2 6 7 12 16 -6 22 -12 -3 -14 17 -10 -7 -9 -18 -5 -21 -22 24 -24 -11 -26 27 -13 -1 -25
right_child=1 2 -4 19 9 8 -8 14 15 10 11 26 13 -15 -16 -17 18 -19 -20 20 21 -23 23 29 25 -27 -28 -29 -30 -31
leaf_value=-0.042868750000000004 0.0022562499999999987 0.0375203125 0.25721250000000001 -0.042868750000000004 0.033131249999999994 0.050040624999999998 0.12885625000000001 0.073856249999999998 0.21909375 -0.0082624999999999955 -0.005637500000000001 0.12884999999999999 0.13057656250000002 0.079034375000000004 0.17510625000000002 0.090368749999999998 0.12860625000000001 0.031193359374999997 -0.0098343749999999959 -0.042868750000000004 0.0022562500000000043 -0.042868750000000004 0.192 0.043475 0.17056562500000003 0 0.186071875 0.033849999999999991 0 0.135434375
leaf_weight=4543 983 404 285 1534 1123 71 206 31 508 91 75 243 92 650 212 40 760 68 32 120 69 158 31 233 35 55 100 69 119 47
leaf_count=4543 983 404 285 1534 1123 71 206 31 508 91 75 243 92 650 212 40 760 68 32 120 69 158 31 233 35 55 100 69 119 47
internal_value=0.000397513 0.0104438 0.0155738 -0.00949679 0.00485818 0.0144519 0.0116431 0.0103209 0.0177622 0.00710038 0.0101251 0.0154261 0.00839878 0.0109501 0.0174035 0.022354 0.0148465 0.00770202 0.0157828 -0.00566853 -0.00126081 0.00269824 0.00487805 0.00791801 -0.000345304 0.00638889 0.0183252 0.0158654 -0.0110414 0.00607143
internal_weight=12987 6444 3359 6543 3085 3074 1663 1457 1411 2102 979 487 1146 742 311 548 863 99 792 1881 347 227 492 311 181 90 412 312 4662 280
internal_count=12987 6444 3359 6543 3085 3074 1663 1457 1411 2102 979 487 1146 742 311 548 863 99 792 1881 347 227 492 311 181 90 412 312 4662 280
is_linear=0
shrinkage=0.05


Tree=4
num_leaves=31
num_cat=0
split_feature=5 17 4 19 16 23 16 19 6 13 9 15 19 19 14 15 2 15 8 6 13 10 16 1 4 14 17 11 23 19
split_gain=469.075 39.4993 30.8823 16.0307 12.0993 11.603 14.563 10.0161 7.78017 6.9366 8.85716 6.2732 5.77145 5.63019 4.72933 4.35496 6.01077 5.41831 4.30315 4.2276 4.27984 4.03194 4.00855 4.03962 3.78217 3.51387 3.48964 3.45614 3.40685 4.11543
threshold=2.5000000000000004 7.5000000000000009 1.0000000180025095e-35 45.500000000000007 89.118055555555571 2.5000000000000004 77.828571428571436 44.500000000000007 6.5500000000000007 0.19292857142857148 5.7083333333333348 10.105555555555556 54.500000000000007 56.500000000000007 0.04354166666666668 5.9500000000000011 0.16583333333333336 7.8819444444444455 0.025500000000000002 4.1000000000000005 0.022111111111111116 87.90000000000002 73.683333333333351 0.045833333333333344 61.750000000000007 0.038166666666666675 9.5000000000000018 4.5000000000000009 3.5000000000000004 51.500000000000007
decision_type=2 2 2 2 2 2 2 2 2 2 2 2 2 2 2 2 2 2 2 2 2 2 2 2 2 2 2 2 2 2
left_child=2 5 3 -1 11 12 19 18 -9 10 -8 13 27 14 -3 -16 -17 -18 -6 20 -7 -12 -15 -24 -4 -11 -25 -2 -5 -30
right_child=1 4 24 28 7 6 9 8 -10 25 21 -13 -14 22 15 16 17 -19 -20 -21 -22 -23 23 26 -26 -27 -28 -29 29 -31
leaf_value=-0.040725312499999999 -0.00011281250000000353 0.040992734374999985 0.00059968750000000126 -0.040725312499999999 0.029307187499999998 0.14192156249999999 0.026162656249999999 0.2033890625 0.085850312499999998 0.074336796874999986 0.079221250000000007 0.1224134375 0.21717 -0.0087700048828125137 0.038917031249999991 0.12490453125000001 0.098544257812499994 -0.011082968750000012 0.19066433593749998 0.081763749999999996 0.041455937499999998 0.124295 0.13440378906250003 0.18651523437499998 -0.00011281250000000353 0.22025109375000002 0.14435187499999999 0.042893906249999988 -0.040725312499999999 0.002143437500000006
leaf_weight=4543 427 429 46 1506 212 35 127 819 71 58 234 275 40 34 261 369 60 70 74 116 520 67 64 111 1015 80 510 467 120 227
leaf_count=4543 427 429 46 1506 212 35 127 819 71 58 234 275 40 34 261 369 60 70 74 116 520 67 64 111 1015 80 510 467 120 227
internal_value=-0.000153038 0.0108816 -0.00833613 -0.00964665 0.0142788 0.00562529 0.00880154 0.0183673 0.0209831 0.0147085 0.0115654 0.0120763 0.00141863 0.0110587 0.00894659 0.0113158 0.0140531 0.00480769 0.0102273 0.00381893 0.0020045 0.0162375 0.0145515 0.0153832 -0.00043591 0.0244565 0.0141506 0.000587248 -0.0057272 -0.00126081
internal_weight=12987 5530 7457 6396 3359 2171 1237 1176 890 566 428 2183 934 1908 1189 760 499 130 286 671 555 301 719 685 1061 138 621 894 1853 347
internal_count=12987 5530 7457 6396 3359 2171 1237 1176 890 566 428 2183 934 1908 1189 760 499 130 286 671 555 301 719 685 1061 138 621 894 1853 347
is_linear=0
shrinkage=0.05


Tree=5
num_leaves=31
num_cat=0
split_feature=5 17 4 16 23 10 23 9 4 24 23 14 2 14 7 12 17 7 9 6 7 12 9 14 14 3 10 11 15 15
split_gain=414.939 36.9339 16.737 15.8421 14.5871 8.48942 8.42537 7.90409 6.98784 5.69332 4.42396 4.41631 4.97601 5.34405 4.17853 3.88533 3.56738 3.51207 3.326 3.63026 3.29265 3.45899 3.63958 3.28347 4.10191 3.26223 5.34682 4.44451 3.15 2.92206
threshold=1.5000000000000002 5.5000000000000009 1.0000000180025095e-35 74.845238095238116 2.5000000000000004 89.100000000000009 2.5000000000000004 7.6333333333333337 84.416666666666671 2.2500000000000004 3.5000000000000004 0.13828571428571432 0.14416666666666669 0.048819444444444457 0.22366666666666671 1.8452380952380956 9.5000000000000018 0.0090000000000000028 5.9000000000000012 2.5500000000000003 0.37700000000000006 3.7638888888888893 4.9000000000000012 0.039500000000000014 0.095357142857142876 4.416666666666667 75.708333333333357 3.5000000000000004 8.2928571428571463 9.7638888888888911
decision_type=2 2 2 2 2 2 2 2 2 2 2 2 2 2 2 2 2 2 2 2 2 2 2 2 2 2 2 2 2 2
left_child=2 6 10 -3 5 23 -2 14 11 -7 -1 12 13 20 18 -11 -10 -18 -8 -20 21 22 -6 -5 -25 26 -16 -27 -24 -23
right_child=1 3 -4 4 8 9 7 -9 16 15 -12 -13 -14 -15 25 -17 17 -19 19 -21 -22 29 28 24 -26 27 -28 -29 -30 -31
leaf_value=-0.038689046875000001 -0.00010717187500000059 0.029522437499999988 -0.00010717187500000059 0.030871222656249992 0.029383140624999995 0.223066015625 -0.0012884218750000009 0.082367765625000006 0.12273008593750001 -0.026933984375000011 -0.038689046875000001 0.13713428125000002 0.01997731835937501 0.1332603818359375 0.039383140624999993 0.10465402343750002 0.15389129101562501 0.11537154687500001 0.039211119140624993 0.096557417968750003 0.19043045312500001 -0.01105690234375002 0.13943331249999999 0.16226288720703128 0.032478929687499991 -0.013384339843750004 0.18549940039062501 0.085337945312499996 0.068553058593749994 0.0727672578125
leaf_weight=5661 844 292 557 319 69 206 429 200 285 49 739 175 109 272 65 959 32 757 115 96 30 118 45 202 162 51 31 35 60 31
leaf_count=5661 844 292 557 319 69 206 429 200 285 49 739 175 109 272 65 959 32 757 115 96 30 118 45 202 162 51 31 35 60 31
internal_value=-0.000460754 0.00912968 -0.00878432 0.011745 0.0125902 0.00945572 0.00328242 0.00633562 0.0155888 0.0119646 -0.00950781 0.0123625 0.0106608 0.01238 0.00416667 0.0104167 0.0183194 0.0165875 0.00226562 0.00740521 0.00832153 0.00684985 0.0116379 0.00499634 0.00824176 0.0108516 0.0171875 0.00377907 0.0175 0.00125839
internal_weight=12995 6038 6957 4172 3880 1897 1866 1022 1983 1214 6400 909 734 625 822 1008 1074 789 640 211 353 323 174 683 364 182 96 86 105 149
internal_count=12995 6038 6957 4172 3880 1897 1866 1022 1983 1214 6400 909 734 625 822 1008 1074 789 640 211 353 323 174 683 364 182 96 86 105 149
is_linear=0
shrinkage=0.05


Tree=6
num_leaves=31
num_cat=0
split_feature=5 5 19 19 16 11 3 23 19 10 12 12 10 2 17 2 8 23 19 19 9 2 17 8 1 13 8 0 23 7
split_gain=389.216 30.4419 20.9755 18.2638 17.67 11.993 6.54245 6.17211 5.26489 5.0118 4.03512 4.37778 4.01315 3.75526 3.63402 4.08088 5.45223 3.54112 6.08202 8.25673 3.47066 3.16514 3.00575 3.82178 5.52784 3.19759 4.25984 2.93944 3.11755 2.82618
threshold=2.5000000000000004 1.0000000180025095e-35 43.500000000000007 46.500000000000007 77.950000000000017 4.5000000000000009 11.833333333333334 2.5000000000000004 49.500000000000007 86.90000000000002 1.8452380952380956 2.6458333333333335 86.291666666666671 0.0058333333333333345 7.5000000000000009 0.051666666666666673 0.0055000000000000005 3.5000000000000004 51.500000000000007 59.500000000000007 6.5500000000000007 0.018333333333333337 9.5000000000000018 0.054500000000000014 0.011666666666666669 0.1881666666666667 0.041000000000000016 2.5833333333333335 3.5000000000000004 0.13633333333333339
decision_type=2 2 2 2 2 2 2 2 2 2 2 2 2 2 2 2 2 2 2 2 2 2 2 2 2 2 2 2 2 2
left_child=1 3 14 -1 13 7 8 -6 10 29 -7 20 -8 -4 -2 16 -16 -5 -19 -20 -12 -14 23 25 -25 26 -10 28 -24 -9
right_child=2 -3 4 17 5 6 12 9 22 -11 11 -13 21 -15 15 -17 -18 18 19 -21 -22 -23 27 24 -26 -27 -28 -29 -30 -31
leaf_value=-0.036754594531250004 -0.00010181328124999612 -0.00010181328124999612 -0.01055243828125001 -0.036754594531250004 -0.0015883757812499844 -0.017290897369384772 0.15225315286865235 0.025713017578125011 0.10122953505859376 0.12504186171875001 0.076166692578125014 0.064077580761718753 0.11895524609375002 0.039447561718749996 0.072609126953125006 0.13217003125000001 0.00027876953125000048 -0.036754594531250004 0.0039707179687500042 -0.038898032031250002 0.14609315068359374 0.14720103203124998 0.1924689701171875 0.019779079296874991 0.17571256210937503 0.16541366152343753 -0.0011964898437500039 0.12600878559570314 0.144570913671875 0.16243362358398439
leaf_weight=4570 463 1076 73 1464 220 70 54 112 96 33 100 888 61 888 38 89 247 132 128 106 92 150 207 39 298 85 77 1056 36 47
leaf_count=4570 463 1076 73 1464 220 70 54 112 96 33 100 888 61 888 38 89 247 132 128 106 92 150 207 39 298 85 77 1056 36 47
internal_value=-0.000764717 -0.00819957 0.00930649 -0.00950781 0.0106098 0.0121708 0.0131724 0.00412621 0.0125164 0.0106771 0.00984783 0.0106019 0.0207075 0.00456556 0.00201613 0.00568182 0.00276316 -0.00528689 -0.000887978 0.00395299 0.0174479 0.0175948 0.0141367 0.0170798 0.0205861 0.0125 0.00859827 0.0127887 0.0177469 0.00699686
internal_weight=12995 7476 5519 6400 4682 3721 3309 412 3044 192 1150 1080 265 961 837 374 285 1830 366 234 192 211 1894 595 337 258 173 1299 243 159
internal_count=12995 7476 5519 6400 4682 3721 3309 412 3044 192 1150 1080 265 961 837 374 285 1830 366 234 192 211 1894 595 337 258 173 1299 243 159
is_linear=0
shrinkage=0.05


Tree=7
num_leaves=31
num_cat=0
split_feature=4 17 19 16 19 15 3 19 12 11 23 10 9 7 24 14 23 19 19 12 13 15 15 9 4 3 2 8 2 13
split_gain=350.784 38.2951 18.2638 10.8944 11.2819 6.83256 5.42688 4.65981 6.5327 4.24826 8.91651 11.127 4.43923 4.88296 3.97873 3.95144 3.54112 6.08202 8.25673 3.44031 3.2785 2.74113 4.08092 2.6834 2.62584 2.50709 2.48051 3.53278 2.31455 2.93889
threshold=1.0000000180025095e-35 5.5000000000000009 46.500000000000007 74.845238095238116 43.500000000000007 6.7071428571428582 1.8333333333333337 54.500000000000007 2.8452380952380958 2.5000000000000004 2.5000000000000004 86.90000000000002 5.9000000000000012 0.22366666666666671 4.5000000000000009 0.16612500000000005 3.5000000000000004 51.500000000000007 59.500000000000007 1.8452380952380956 0.022928571428571434 7.4722222222222232 8.0500000000000025 7.1000000000000005 60.250000000000007 10.583333333333334 0.028333333333333339 0.049000000000000016 0.21833333333333338 0.28725000000000006
decision_type=2 2 2 2 2 2 2 2 2 2 2 2 2 2 2 2 2 2 2 2 2 2 2 2 2 2 2 2 2 2
left_child=2 9 -1 -3 6 14 -5 8 -7 24 25 12 13 -12 19 21 -4 -18 -19 -6 -8 -10 -23 28 -2 26 -11 -28 -21 -30
right_child=1 3 16 4 5 7 20 -9 15 10 11 -13 -14 -15 -16 -17 17 18 -20 23 -22 22 -24 -25 -26 -27 27 -29 29 -31
leaf_value=-0.034916864804687503 0.00058015238281249883 0.026073937539062488 -0.034916864804687503 0.06897867060546875 -0.023838446662445074 0.1252598468383789 -0.0062513636328125014 0.14845977025878906 0.10972593454833984 -0.0022786444921874985 -0.0090906125976562453 0.11349033549072265 0.08340263767089845 0.084867170449218751 -0.0050484490478515665 0.11019228729492188 -0.034916864804687503 0.0037721820703125021 -0.036953130429687502 0.1251046590637207 0.034382039561767566 0.0096868483056640753 0.097372837089843775 0.025065264626464835 -9.6722617187494647e-05 0.11906872269531253 0.17459059523681641 -9.6722617187494647e-05 0.2642704071868896 0.12564204782653809
leaf_weight=4570 30 292 1464 42 67 187 232 531 123 385 310 47 256 106 79 59 132 128 106 1256 238 149 729 98 1046 31 47 165 60 30
leaf_count=4570 30 292 1464 42 67 187 232 531 123 385 310 47 256 106 79 59 132 128 106 1256 238 149 729 98 1046 31 47 165 60 30
internal_value=-0.00116872 0.00692381 -0.00950781 0.00982742 0.0105284 0.0115796 0.00361328 0.0137092 0.0120389 0.00192427 0.00379547 0.00759736 0.00595238 0.00276442 0.00919811 0.0105189 -0.00528689 -0.000887978 0.00395299 0.00977002 0.00207447 0.00977772 0.00879841 0.0102839 -0.000418216 -0.000557325 -0.00127722 0.00306604 0.0108655 0.0186111
internal_weight=12995 6595 6400 4172 3880 3368 512 1778 1247 2423 1347 719 672 416 1590 1060 1830 366 234 1511 470 1001 878 1444 1076 628 597 212 1346 90
internal_count=12995 6595 6400 4172 3880 3368 512 1778 1247 2423 1347 719 672 416 1590 1060 1830 366 234 1511 470 1001 878 1444 1076 628 597 212 1346 90
is_linear=0
shrinkage=0.05


Tree=8
num_leaves=31
num_cat=0
split_feature=5 17 19 16 19 3 24 5 23 10 9 7 14 23 19 19 13 10 2 15 1 6 2 24 1 7 10 12 15 19
split_gain=325.989 26.7845 18.2638 8.54194 8.11796 5.48861 5.31382 5.11148 5.72293 7.73684 4.56767 4.51944 3.95388 3.54112 6.08202 8.25673 3.11566 2.62584 2.59065 2.60072 2.78674 2.74194 3.25452 2.71344 2.32204 2.31148 2.44822 2.2686 2.25218 2.23316
threshold=1.0000000180025095e-35 5.5000000000000009 46.500000000000007 74.845238095238116 43.500000000000007 1.8333333333333337 2.2500000000000004 2.5000000000000004 2.5000000000000004 86.90000000000002 5.9000000000000012 0.22366666666666671 0.14950000000000005 3.5000000000000004 51.500000000000007 59.500000000000007 0.022928571428571434 60.250000000000007 0.16833333333333336 6.7071428571428582 0.30416666666666675 3.5500000000000003 0.12166666666666669 4.5000000000000009 0.24583333333333338 0.20900000000000005 77.77500000000002 1.8452380952380956 5.6458333333333348 55.500000000000007
decision_type=2 2 2 2 2 2 2 2 2 2 2 2 2 2 2 2 2 2 2 2 2 2 2 2 2 2 2 2 2 2
left_child=2 7 -1 28 5 -5 -6 17 -9 10 11 25 18 -4 -15 -16 -7 -2 19 23 21 22 -21 27 -23 26 -10 -8 -3 -20
right_child=1 3 13 4 6 16 12 8 9 -11 -12 -13 -14 14 15 -17 -18 -19 29 20 -22 24 -24 -25 -26 -27 -28 -29 -30 -31
leaf_value=-0.033171021564453132 0.00055114476367187362 -0.012869056212890629 -0.033171021564453132 0.065529737075195313 0.18519054245697023 -0.0059387954511718744 -0.022854582266487136 1.7209607421880824e-05 0.037929714262695306 0.10781581871618653 0.079232505787353524 0.080623811926757813 0.11769502551638795 -0.033171021564453132 0.0035835729667968775 -0.035105473908203129 0.032662937583679184 -9.1886486328118802e-05 -0.018680740108917238 0.11483970446142577 0.16914541730773927 0.082417991916748035 -0.0014550373379516757 -0.0060250349719238316 -0.0025428661789550946 -0.027669328706054697 -0.011136081967773437 0.082913380455017088 0.034190900818359363 0.086462726428802483
leaf_weight=4570 30 235 1464 42 597 232 53 628 161 47 256 106 361 132 128 106 238 1046 107 409 35 601 38 62 61 42 107 969 57 75
leaf_count=4570 30 235 1464 42 597 232 53 628 161 47 256 106 361 132 128 106 238 1046 107 409 35 601 38 62 61 42 107 969 57 75
internal_value=-0.00146883 0.00633245 -0.00950781 0.00876079 0.00938144 0.00351563 0.0102732 0.00215126 0.00420379 0.00724965 0.00587798 0.00264423 0.00935132 -0.00528689 -0.000887978 0.00395299 0.00196809 -0.000418216 0.00862033 0.00908887 0.0107517 0.0103133 0.0133389 0.00733395 0.00827039 -0.000403226 0.00130597 0.0079501 0.000513699 0.00288462
internal_weight=12995 6595 6400 4172 3880 512 3368 2423 1347 719 672 416 2771 1830 366 234 470 1076 2410 2228 1144 1109 447 1084 662 310 268 1022 292 182
internal_count=12995 6595 6400 4172 3880 512 3368 2423 1347 719 672 416 2771 1830 366 234 470 1076 2410 2228 1144 1109 447 1084 662 310 268 1022 292 182
is_linear=0
shrinkage=0.05


Tree=9
num_leaves=31
num_cat=0
split_feature=4 11 19 19 15 19 23 19 19 16 17 17 11 23 9 7 24 4 16 24 8 2 15 15 13 2 9 4 2 7
split_gain=301.203 21.2847 18.2638 7.75757 7.03078 6.09519 3.54112 6.08202 8.25673 3.25719 4.13396 4.02457 3.1991 4.38298 5.72384 3.48959 3.10432 4.99534 2.74509 2.68696 2.68325 4.06467 2.81761 2.67722 2.66523 2.63605 2.76387 2.62584 2.58632 2.53732
threshold=1.0000000180025095e-35 4.5000000000000009 46.500000000000007 43.500000000000007 5.6458333333333348 67.500000000000014 3.5000000000000004 51.500000000000007 59.500000000000007 74.612500000000011 6.5000000000000009 6.5000000000000009 2.5000000000000004 2.5000000000000004 5.9000000000000012 0.24000000000000005 2.7500000000000004 89.166666666666671 77.050000000000011 3.2500000000000004 0.04366666666666668 0.011666666666666669 8.5857142857142872 13.050000000000002 0.25950000000000006 0.021666666666666671 12.366666666666669 60.250000000000007 0.015833333333333335 0.0090000000000000028
decision_type=2 2 2 2 2 2 2 2 2 2 2 2 2 2 2 2 2 2 2 2 2 2 2 2 2 2 2 2 2 2
left_child=2 12 -1 20 9 16 -4 -8 -9 11 18 28 27 -14 15 -15 17 -6 -11 -12 21 -3 -22 25 -13 26 29 -2 -5 -18
right_child=1 3 6 4 5 -7 7 8 -10 10 19 24 13 14 -16 -17 23 -19 -20 -21 22 -23 -24 -25 -26 -27 -28 -29 -30 -31
leaf_value=-0.031512470486230473 0.00052358752548827827 0.032167394830175791 -0.031512470486230473 -0.012225603402246099 0.10120672486491392 0.2377191278088974 -0.031512470486230473 0.0034043943184570327 -0.033350200212792967 0.086257294439550783 0.13192408198646541 -0.014725603402246101 -1.0924896386713124e-05 -0.0080792778693847597 0.074261747309509268 0.076018186271826174 0.19674581802763674 0.19049660149714662 -0.009358802498291019 0.02096738171254349 0.023722003896633904 -0.0092506103661132884 0.18165093963393861 0.11168877353099366 0.035054375113378895 0.054470646863549049 -0.0088408408853027261 -8.729216201170954e-05 0.082762755972753899 0.10978162137850954
leaf_weight=4570 30 197 1464 34 176 229 132 128 106 37 789 117 458 231 194 63 54 213 190 224 139 253 37 31 35 1331 37 1046 79 371
leaf_count=4570 30 197 1464 34 176 229 132 128 106 37 789 117 458 231 194 63 54 213 190 224 139 253 37 31 35 1331 37 1046 79 371
internal_value=-0.00178049 0.00571835 -0.00950781 0.00760715 0.00842729 0.0100839 -0.00528689 -0.000887978 0.00395299 0.0057392 0.00681452 0.000707547 0.00144659 0.00356765 0.00686475 0.00246599 0.00928039 0.0133355 0.000715859 0.00818115 0.0024361 0.000388889 0.00767045 0.00841557 -0.00460526 0.00816369 0.0114177 -0.000418216 0.00785398 0.0125588
internal_weight=12995 6595 6400 4573 3947 2442 1830 366 234 1505 1240 265 2022 946 488 294 2213 389 227 1013 626 450 176 1824 152 1793 462 1076 113 425
internal_count=12995 6595 6400 4573 3947 2442 1830 366 234 1505 1240 265 2022 946 488 294 2213 389 227 1013 626 450 176 1824 152 1793 462 1076 113 425
is_linear=0
shrinkage=0.05


Tree=10
num_leaves=31
num_cat=0
split_feature=6 19 11 24 19 16 14 23 19 19 6 15 13 4 6 4 7 7 6 19 3 16 16 14 14 9 19 3 14 9
split_gain=300.791 17.8807 17.7303 6.78231 5.61626 8.06212 4.53145 4.13014 5.10676 6.4766 3.60567 3.21233 4.17039 2.84136 4.18596 3.9046 3.1083 3.32904 3.08357 2.77892 2.76673 2.72732 3.32869 3.33267 2.96875 2.61245 2.57576 2.50884 2.43176 2.33793
threshold=1.0000000180025095e-35 45.500000000000007 4.5000000000000009 4.5000000000000009 50.500000000000007 88.292857142857159 0.011833333333333335 3.5000000000000004 51.500000000000007 59.500000000000007 3.7750000000000004 6.5277777777777786 0.17050000000000001 77.583333333333357 1.9000000000000001 60.250000000000007 0.062916666666666676 0.48225000000000001 3.7083333333333335 54.500000000000007 2.5833333333333335 83.63333333333334 84.873015873015888 0.059500000000000018 0.095357142857142876 4.2250000000000005 48.500000000000007 13.41666666666667 0.15050000000000005 7.7083333333333348
decision_type=2 2 2 2 2 2 2 2 2 2 2 2 2 2 2 2 2 2 2 2 2 2 2 2 2 2 2 2 2 2
left_child=1 -1 13 4 27 6 -6 -3 26 -10 -7 12 -8 14 -2 -16 18 25 -15 29 -21 -13 -23 -24 -25 -18 -9 -4 -26 -17
right_child=2 7 3 -5 5 10 11 8 9 -11 -12 21 -14 16 15 19 17 -19 -20 20 -22 22 23 24 28 -27 -28 -29 -30 -31
leaf_value=-0.029936846961918947 0.0022861349460888635 -0.029936846961918947 0.044736518740278335 -0.0067433536511028735 -0.017107262744841322 0.21468936284807968 0.021233594827624613 0.020063153038081056 0.0032341746025341791 -0.031682690202153321 0.14134309229652536 0.1363059960943514 0.14655422494995679 -8.2927553911127388e-05 0.00049740814921386269 -0.0017188650539111255 0.029732143680553602 -0.052339177553911133 0.045302439903120134 0.048735822446088872 0.00021519744608887171 -0.0049876133082417014 0.043539381258372846 0.17891291879210308 0.076210872815635752 0.057570912144351186 -0.029936846961918947 0.16704653601597441 0.1828068429635227 0.046423090414838879
leaf_weight=4661 119 1485 2188 228 60 197 368 30 125 126 418 235 483 525 32 492 74 31 221 36 186 63 89 64 98 190 102 53 77 100
leaf_count=4661 119 1485 2188 228 60 197 368 30 125 126 418 235 483 525 32 492 74 31 221 36 186 63 89 64 98 190 102 53 77 100
internal_value=-0.00189647 -0.00951333 0.00560774 0.00731173 0.00774812 0.00957249 0.00763663 -0.00538009 -0.000750653 0.00343625 0.0144106 0.00818382 0.0061839 0.00168245 -0.000272021 -0.00150709 0.00349424 0.00783898 0.00177614 -0.00218059 0.00259009 0.0109026 0.00834399 0.0103659 0.0134414 0.00965909 -0.00871212 0.00599621 0.0100714 -0.00396959
internal_weight=13156 6529 6627 4621 4393 2152 1537 1868 383 251 615 1477 851 2006 965 846 1041 295 746 814 222 626 391 328 239 264 132 2241 175 592
internal_count=13156 6529 6627 4621 4393 2152 1537 1868 383 251 615 1477 851 2006 965 846 1041 295 746 814 222 626 391 328 239 264 132 2241 175 592
is_linear=0
shrinkage=0.05


Tree=11
num_leaves=31
num_cat=0
split_feature=6 19 11 24 3 23 19 19 10 8 2 8 19 6 9 17 19 19 19 12 13 5 9 1 4 13 9 24 3 3
split_gain=282.468 17.8807 17.5579 6.036 4.99104 4.13014 5.10676 6.4766 3.55865 3.43744 3.4018 3.41661 3.34349 3.47975 3.11395 3.09237 2.61077 2.57576 2.50561 2.91152 2.65851 2.4624 4.26703 3.12608 2.89146 2.27811 2.24531 2.07998 2.0198 1.94397
threshold=1.0000000180025095e-35 45.500000000000007 4.5000000000000009 4.5000000000000009 11.833333333333334 3.5000000000000004 51.500000000000007 59.500000000000007 88.90000000000002 0.20266666666666672 0.058333333333333341 0.15775000000000003 49.500000000000007 3.7750000000000004 7.7750000000000012 6.5000000000000009 40.500000000000007 48.500000000000007 67.500000000000014 5.9500000000000011 0.12683333333333338 2.5000000000000004 7.6333333333333337 0.32166666666666671 60.250000000000007 0.06316666666666669 9.5500000000000025 2.7500000000000004 6.166666666666667 6.8333333333333348
decision_type=2 2 2 2 2 2 2 2 2 2 2 2 2 2 2 2 2 2 2 2 2 2 2 2 2 2 2 2 2 2
left_child=1 -1 21 4 8 -3 17 -8 9 16 -6 -12 15 14 -14 -10 -4 -7 20 -20 26 24 23 -23 -2 -24 29 -17 -11 -15
right_child=2 5 3 -5 10 6 7 -9 12 28 11 -13 13 18 -16 27 -18 -19 19 -21 -22 22 25 -25 -26 -27 -28 -29 -30 -31
leaf_value=-0.028440004613823001 0.00047253774175317069 -0.028440004613823001 -0.0085380785084543612 -0.0064061859685477342 0.090267117337798408 0.019059995386177003 0.0030724658724074708 -0.030098555692045656 -0.0040194080654818885 0.10066027640059549 0.17789748712813905 0.059794095728743106 0.16363464954627666 0.14126314960405359 0.25851524017633282 0.18677511600579233 0.049131423647389483 -0.028440004613823001 0.25212740605713085 0.046315751193482205 -0.012264360222024507 9.5369874565681689e-05 0.021896387679151242 0.10911252600681638 -0.0011191718012155793 0.086208010465798957 0.019566017684684224 0.062308113712722463 0.081090685086813594 0.16460181825207443
leaf_weight=4661 34 1485 95 228 185 30 125 126 123 111 86 36 153 104 82 137 2230 102 60 31 89 656 181 38 1051 46 73 638 78 82
leaf_count=4661 34 1485 95 228 185 30 125 126 123 111 86 36 153 104 82 137 2230 102 60 31 89 656 181 38 1051 46 73 638 78 82
internal_value=-0.00213211 -0.00951333 0.00513996 0.00683564 0.00724733 -0.00538009 -0.000750653 0.00343625 0.00678536 0.00561854 0.0133958 0.019877 0.0086514 0.0113131 0.0162234 0.00665367 0.0050914 -0.00871212 0.00868451 0.0160714 0.00675287 0.0012338 0.00313518 0.00118876 -0.000380184 0.0090859 0.00931467 0.00782258 0.0121032 0.0122312
internal_weight=13156 6529 6627 4621 4393 1868 383 251 4086 2514 307 122 1572 674 235 898 2325 132 439 91 348 2006 921 694 1085 227 259 775 189 186
internal_count=13156 6529 6627 4621 4393 1868 383 251 4086 2514 307 122 1572 674 235 898 2325 132 439 91 348 2006 921 694 1085 227 259 775 189 186
is_linear=0
shrinkage=0.05


Tree=12
num_leaves=31
num_cat=0
split_feature=6 19 11 3 24 23 19 19 19 10 2 8 19 19 8 19 9 9 7 3 8 8 3 7 7 24 9 1 7 2
split_gain=262.754 17.8807 14.9955 5.59243 4.86644 4.13014 5.10676 6.4766 3.11192 6.31192 2.86434 3.4901 2.57576 2.39868 5.60444 3.28023 2.72218 2.67301 2.1316 2.12606 2.24166 2.55007 2.92802 2.66624 2.11256 2.06024 1.98519 2.57125 4.00909 1.98032
threshold=1.0000000180025095e-35 45.500000000000007 4.5000000000000009 11.833333333333334 4.5000000000000009 3.5000000000000004 51.500000000000007 59.500000000000007 50.500000000000007 86.100000000000009 0.058333333333333341 0.14633333333333337 48.500000000000007 54.500000000000007 0.029000000000000008 61.500000000000007 4.291666666666667 5.2250000000000005 0.029000000000000005 12.16666666666667 0.14900000000000005 0.066333333333333355 7.416666666666667 0.0045000000000000014 0.094500000000000015 1.5000000000000002 5.4500000000000011 0.1016666666666667 0.18100000000000005 0.0058333333333333345
decision_type=2 2 2 2 2 2 2 2 2 2 2 2 2 2 2 2 2 2 2 2 2 2 2 2 2 2 2 2 2 2
left_child=1 -1 13 4 8 -3 12 -8 25 29 24 -12 -7 16 15 -15 -2 18 -18 20 21 23 -23 -19 -5 -4 -25 -28 -29 -10
right_child=2 5 3 10 -6 6 7 -9 9 -11 11 -13 -14 14 -16 -17 17 19 -20 -21 -22 22 -24 26 -26 -27 27 28 -30 -31
leaf_value=-0.027018004383131851 -0.0011222757111547966 -0.027018004383131851 0.17442456129711667 0.069876157605408093 -0.0073794303604249219 0.018106995616868155 0.0029188425787870956 -0.02859362790744337 -0.033935313087458438 0.14828387612133734 0.14499312470853706 0.061232323128477179 -0.027018004383131851 0.13685535623071166 0.00069640252580809167 0.035737496108247058 0.0022277867888451986 -0.001906940261936052 0.083553878342083943 0.094071117764923259 0.049179384382155751 -0.0060646075784160369 0.094519960527542107 -0.013481632798002952 0.23045049764466483 0.03650459874888199 0.015406712064724926 0.080732624613783402 0.012308708343932124 0.062533620256710595
leaf_weight=4661 468 1485 94 164 209 30 125 126 39 893 86 46 102 52 324 62 76 306 37 44 56 119 30 30 30 1989 292 55 55 1071
leaf_count=4661 468 1485 94 164 209 30 125 126 39 893 86 46 102 52 324 62 76 306 37 44 56 119 30 30 30 1989 292 55 55 1071
internal_value=-0.00239434 -0.00951333 0.00461936 0.00618643 0.00570722 -0.00538009 -0.000750653 0.00343625 0.00608786 0.00749501 0.0125 0.0181818 -0.00871212 0.00100947 0.00428082 0.0138158 9.56633e-05 0.00145455 0.00873894 0.000620567 0.0001193 -0.000493236 -0.00645973 0.000711382 0.00863402 0.00473476 0.00324074 0.00416667 0.0106818 0.00497748
internal_weight=13156 6529 6627 4621 4295 1868 383 251 4086 2003 326 132 132 2006 438 114 1568 1100 113 987 943 887 149 738 194 2083 432 402 110 1110
internal_count=13156 6529 6627 4621 4295 1868 383 251 4086 2003 326 132 132 2006 438 114 1568 1100 113 987 943 887 149 738 194 2083 432 402 110 1110
is_linear=0
shrinkage=0.05


Tree=13
num_leaves=31
num_cat=0
split_feature=6 19 11 15 19 23 19 19 19 1 2 15 19 14 19 8 19 4 23 6 4 10 12 24 14 0 12 19 10 14
split_gain=249.734 17.8807 13.9326 5.31799 7.60442 4.13014 5.10676 6.4766 3.45785 4.01054 2.72252 4.02301 2.57576 2.4713 2.39285 4.8676 2.58118 2.48687 4.08676 2.62451 2.47132 2.26059 5.01729 2.16487 2.12514 2.34656 2.39836 2.5307 2.79719 1.98872
threshold=1.0000000180025095e-35 45.500000000000007 4.5000000000000009 6.5634920634920642 71.500000000000014 3.5000000000000004 51.500000000000007 59.500000000000007 50.500000000000007 0.074166666666666686 0.20833333333333337 5.1833333333333345 48.500000000000007 0.019500000000000007 54.500000000000007 0.029000000000000008 61.500000000000007 77.583333333333357 2.5000000000000004 1.9000000000000001 81.166666666666671 86.100000000000009 5.2678571428571432 4.5000000000000009 0.0052777777777777788 5.166666666666667 6.2750000000000012 47.500000000000007 81.100000000000009 0.18816666666666668
decision_type=2 2 2 2 2 2 2 2 2 2 2 2 2 2 2 2 2 2 2 2 2 2 2 2 2 2 2 2 2 2
left_child=1 -1 14 10 8 -3 12 -8 23 13 24 -12 -7 -10 17 16 -16 19 -19 -2 -20 22 -11 -5 -4 -26 27 -27 -29 -23
right_child=2 5 3 4 -6 6 7 -9 9 21 11 -13 -14 -15 15 -17 -18 18 20 -21 -22 29 -24 -25 25 26 -28 28 -30 -31
leaf_value=-0.02566710416397526 0.0022103213019420086 -0.02566710416397526 0.057178450557165007 0.06435868257283954 0.23427667766370119 0.017201645836024747 0.0027729004498477428 -0.027163946512071203 0.033055769623107918 -0.0097341989255117847 0.029797069436999491 0.23621156170970728 -0.02566710416397526 0.12034591250885329 0.13001258841917607 0.0006615823995176893 0.033950621302834709 -0.00097843062129507894 0.041105936243775495 -0.0011959498654468494 0.038719540226043445 0.10699637932209166 0.15700956334720531 -0.01012371908915154 0.016227759366960005 -0.0064401127739335765 -0.015773041233156194 0.21494239235417389 0.15314240761543169 -0.020376392070353057
leaf_weight=4661 117 1485 356 1294 110 30 125 126 50 195 78 67 102 467 52 324 62 618 59 611 163 177 34 71 1385 55 49 59 135 39
leaf_count=4661 117 1485 356 1294 110 30 125 126 50 195 78 67 102 467 52 324 62 618 59 611 163 177 34 71 1385 55 49 59 135 39
internal_value=-0.00257297 -0.00951333 0.00426475 0.00577527 0.007381 -0.00538009 -0.000750653 0.00343625 0.00677374 0.00906965 0.00398352 0.0106034 -0.00871212 0.0120648 0.000785145 0.00405251 0.0129386 -0.000127551 0.00172619 -0.00226648 0.00754505 0.00558989 0.00212882 0.00515568 0.00351275 0.00277035 0.0067953 0.00878514 0.0114691 0.00925926
internal_weight=13156 6529 6627 4621 2437 1868 383 251 2327 962 2184 145 132 517 2006 438 114 1568 840 728 222 445 229 1365 2039 1683 298 249 194 216
internal_count=13156 6529 6627 4621 2437 1868 383 251 2327 962 2184 145 132 517 2006 438 114 1568 840 728 222 445 229 1365 2039 1683 298 249 194 216
is_linear=0
shrinkage=0.05


Tree=14
num_leaves=31
num_cat=0
split_feature=6 19 11 3 23 19 19 24 10 2 19 14 19 19 7 14 12 1 12 19 3 2 16 19 12 2 11 2 10 13
split_gain=235.182 17.8807 11.944 4.57486 4.13014 5.10676 6.4766 3.77807 2.75586 2.62772 2.61691 4.8676 2.58118 2.57925 3.69636 2.8421 3.0687 2.69869 4.08381 2.57576 2.51447 2.51268 2.47905 2.13766 2.11003 2.04677 2.00132 1.99832 1.79808 1.79176
threshold=1.0000000180025095e-35 45.500000000000007 4.5000000000000009 11.833333333333334 3.5000000000000004 51.500000000000007 59.500000000000007 4.5000000000000009 88.77500000000002 0.27833333333333338 54.500000000000007 0.029500000000000009 61.500000000000007 67.500000000000014 0.15900000000000003 0.053166666666666675 3.8819444444444451 0.028333333333333339 3.4142857142857146 48.500000000000007 11.41666666666667 0.058333333333333341 88.89444444444446 40.500000000000007 5.9500000000000011 0.18833333333333338 1.5000000000000002 0.058333333333333341 66.63333333333334 0.067250000000000018
decision_type=2 2 2 2 2 2 2 2 2 2 2 2 2 2 2 2 2 2 2 2 2 2 2 2 2 2 2 2 2 2
left_child=1 -1 10 7 -3 19 -7 8 9 23 20 12 -12 14 15 -10 17 18 -17 -6 28 29 -18 -4 -15 -23 -22 -16 -2 -5
right_child=2 4 3 21 5 6 -8 -9 13 -11 11 -13 -14 24 27 16 22 -19 -20 -21 26 25 -24 -25 -26 -27 -28 -29 -30 -31
leaf_value=-0.024383748955776496 -0.0011738675573247149 -0.024383748955776496 -0.0096143988817790627 0.063164415596495702 0.01634156354422351 0.0026342554273553532 -0.025805749186467643 -0.0074573347623635216 0.07447186886201311 0.1713692026539699 0.12351195899821726 0.00062850327954180614 0.032253090237692975 0.22432179348401632 0.05511705956118676 0.19027286217462056 0.14401173412514687 0.0037895674828270971 0.026197371564114294 -0.024383748955776496 -0.005179682497639131 0.13212164407412938 0.13742036989040973 0.03929616578066706 0.028053943403096394 0.039814974809611409 0.093292930832441598 -0.034514270433590212 -0.00057029059786892211 0.21045305140042761
leaf_weight=4661 173 1485 95 144 30 125 126 209 947 90 52 324 62 102 56 59 51 94 43 102 36 91 128 2295 31 41 40 95 1319 50
leaf_count=4661 173 1485 95 144 30 125 126 209 947 90 52 324 62 102 56 59 51 94 43 102 36 91 128 2295 31 41 40 95 1319 50
internal_value=-0.0027782 -0.00951333 0.00385733 0.0052559 -0.00538009 -0.000750653 0.00343625 0.00482247 0.00515786 0.0041129 0.000635593 0.00405251 0.0129386 0.00677148 0.00616938 0.00701589 0.0107 0.00637755 0.0120098 -0.00871212 -0.000318878 0.0109663 0.015433 0.00379707 0.0134398 0.0162879 0.00855263 -0.00124172 -0.000770777 0.00734536
internal_weight=13156 6529 6627 4621 1868 383 251 4295 4086 2480 2006 438 114 1606 1473 1322 375 196 102 132 1568 326 179 2390 133 132 76 151 1492 194
internal_count=13156 6529 6627 4621 1868 383 251 4295 4086 2480 2006 438 114 1606 1473 1322 375 196 102 132 1568 326 179 2390 133 132 76 151 1492 194
is_linear=0
shrinkage=0.05


Tree=15
num_leaves=31
num_cat=0
split_feature=4 19 4 15 11 4 19 19 23 19 19 4 15 0 19 13 15 5 19 10 15 9 4 10 4 19 2 14 1 2
split_gain=218.962 17.397 8.84505 4.43836 5.48785 4.40628 4.09024 3.91402 3.75108 4.97727 5.97298 3.49606 3.49262 3.50235 3.12126 2.87156 2.72014 2.71718 2.60097 2.45915 3.66174 2.45517 2.60783 3.94409 2.3643 2.36164 2.28224 2.23295 2.72564 2.13498
threshold=1.0000000180025095e-35 45.500000000000007 77.583333333333357 6.5634920634920642 3.5000000000000004 79.166666666666671 54.500000000000007 52.500000000000007 3.5000000000000004 51.500000000000007 59.500000000000007 81.500000000000014 7.2111111111111121 1.1666666666666667 42.500000000000007 0.15050000000000002 8.563492063492065 2.5000000000000004 45.500000000000007 76.90000000000002 2.6125000000000003 7.7083333333333348 83.166666666666671 84.90000000000002 75.833333333333357 48.500000000000007 0.0058333333333333345 0.091547619047619072 0.061666666666666682 0.27833333333333338
decision_type=2 2 2 2 2 2 2 2 2 2 2 2 2 2 2 2 2 2 2 2 2 2 2 2 2 2 2 2 2 2
left_child=1 -1 7 5 11 15 12 17 -3 25 -11 -5 27 -14 -7 -4 -15 18 -2 20 -9 -8 -23 -24 -22 -10 -21 -6 -29 -16
right_child=2 8 3 4 6 14 21 19 9 10 -12 -13 13 16 29 -17 -18 -19 -20 26 24 22 23 -25 -26 -27 -28 28 -30 -31
leaf_value=-0.023164561507987669 0.0019215834141992961 -0.023164561507987669 0.029876073110518271 0.038779136597208011 0.14895651502613733 -0.0031150970511262701 0.057606898483861468 0.092946844898478223 0.015524485367012331 0.0025025426559875832 -0.02451546172714426 -0.0020064953849513677 0.14760848426339712 0.018403652694744362 0.02989304043851734 0.17541889951908921 0.067848137052838417 0.0030109490182547109 -0.0015840999024312687 -0.053822357645109654 0.02069058089491202 0.17192069651581221 -0.010131922233020785 0.12598787580132448 0.083837059803848202 -0.023164561507987669 0.011114943764988526 -0.0059497705447833955 0.1487548552111001 0.18176834595257158
leaf_weight=4576 113 1485 87 44 104 277 214 58 32 120 111 353 35 567 1717 51 972 582 349 46 410 47 51 290 47 99 136 50 32 46
leaf_count=4576 113 1485 87 44 104 277 214 58 32 120 111 353 35 567 1717 51 972 582 349 46 410 47 51 290 47 99 136 50 32 46
internal_value=-0.00296638 -0.00955745 0.00337302 0.00445362 0.00578561 0.0027663 0.00669983 0.000308731 -0.00546156 -0.00089779 0.00351732 0.000346348 0.00548295 0.00471728 0.00218137 0.011413 0.0043616 -0.00162835 -0.00449134 0.00321019 0.00497573 0.0102575 0.0126289 0.011107 0.00347374 -0.00868321 -0.00178571 0.0119624 0.00579268 0.00295661
internal_weight=13101 6423 6678 4937 2759 2178 2362 1741 1847 362 231 397 1760 1574 2040 138 1539 1044 462 697 515 602 388 341 457 131 182 186 82 1763
internal_count=13101 6423 6678 4937 2759 2178 2362 1741 1847 362 231 397 1760 1574 2040 138 1539 1044 462 697 515 602 388 341 457 131 182 186 82 1763
is_linear=0
shrinkage=0.05


Tree=16
num_leaves=31
num_cat=0
split_feature=4 19 17 3 19 23 19 19 5 2 15 24 19 2 15 19 23 15 14 15 11 19 6 6 15 15 4 7 11 2
split_gain=203.034 17.397 9.78993 4.74515 3.79921 3.75108 4.97727 5.97298 3.40325 3.35445 3.16309 3.1605 2.91598 3.2107 2.52439 2.51241 3.21283 4.11588 2.9573 2.45592 3.01545 2.36164 2.28738 2.28728 2.91624 2.20475 2.37633 3.42842 2.29898 2.16667
threshold=1.0000000180025095e-35 45.500000000000007 7.5000000000000009 11.833333333333334 54.500000000000007 3.5000000000000004 51.500000000000007 59.500000000000007 1.5000000000000002 0.04416666666666668 4.3166666666666673 2.7500000000000004 69.500000000000014 0.025833333333333337 8.5277777777777803 42.500000000000007 2.5000000000000004 5.9500000000000011 0.060500000000000005 5.9500000000000011 3.5000000000000004 48.500000000000007 4.366666666666668 7.1000000000000005 6.8944444444444457 5.2111111111111121 77.416666666666671 0.029000000000000005 3.5000000000000004 0.078333333333333352
decision_type=2 2 2 2 2 2 2 2 2 2 2 2 2 2 2 2 2 2 2 2 2 2 2 2 2 2 2 2 2 2
left_child=1 -1 3 4 10 -3 21 -8 -5 22 -2 15 14 -14 -13 -4 17 -17 -19 -6 -21 -7 -10 24 29 26 -12 -28 -27 -15
right_child=2 5 11 8 19 6 7 -9 9 -11 25 12 13 23 -16 16 -18 18 -20 20 -22 -23 -24 -25 -26 28 27 -29 -30 -31
leaf_value=-0.022006333432588288 -0.0015048949073097062 -0.022006333432588288 -0.015103291922598428 -0.0086973448814343275 0.021439433512209661 0.014748261098661715 0.0023774155231882036 -0.023289688640787048 0.081370629503825662 0.11800938587939119 0.001853707368489327 0.020647016567582256 0.24948889979001787 -0.032724693925962597 0.065417752343729194 0.13677750100405719 0.073454644904010574 0.15753953477855862 0.21603357172703597 0.00011489339521394694 0.14940259383339002 -0.022006333432588288 -0.01292676087707011 -0.027563790681547143 0.19035415000296008 -0.001906170615703795 0.047447074205427479 0.17035220292661463 0.012120509001484035 0.13439494934766724
leaf_weight=4576 712 1485 34 40 589 32 120 111 37 32 128 1649 39 52 803 99 324 93 58 76 143 99 34 48 56 744 52 34 698 104
leaf_count=4576 712 1485 34 40 589 32 120 111 37 32 128 1649 39 52 803 99 324 93 58 76 143 99 34 48 56 744 52 34 698 104
internal_value=-0.00321063 -0.00955745 0.00289383 0.000967912 0.000566751 -0.00546156 -0.00089779 0.00351732 0.00987762 0.0146845 -0.000443412 0.00479681 0.00407579 0.00873746 0.00350734 0.00805921 0.00884146 0.0131 0.0182947 0.00352723 0.00804795 -0.00868321 0.00862676 0.00673077 0.00896226 0.000754831 0.00549065 0.0119186 5.20111e-05 0.00544872
internal_weight=13101 6423 6678 3319 3176 1847 362 231 143 103 2368 3359 2751 299 2452 608 574 250 151 808 219 131 71 260 212 1656 214 86 1442 156
internal_count=13101 6423 6678 3319 3176 1847 362 231 143 103 2368 3359 2751 299 2452 608 574 250 151 808 219 131 71 260 212 1656 214 86 1442 156
is_linear=0
shrinkage=0.05


Tree=17
num_leaves=31
num_cat=0
split_feature=4 19 17 3 23 19 19 12 11 24 19 10 19 15 19 15 9 14 15 4 7 4 7 3 19 4 14 14 10 19
split_gain=195.295 17.397 9.50046 4.23919 3.75108 4.97727 5.97298 3.55157 3.02956 2.73872 2.75327 2.59672 2.53901 2.85194 2.36164 2.19129 2.06554 2.06107 1.96342 2.30591 2.95236 1.99068 1.94878 2.01612 1.89321 2.75339 2.29706 1.85005 1.8279 1.83036
threshold=1.0000000180025095e-35 45.500000000000007 7.5000000000000009 11.833333333333334 3.5000000000000004 51.500000000000007 59.500000000000007 8.1055555555555561 1.5000000000000002 2.7500000000000004 77.000000000000014 89.700000000000003 54.500000000000007 4.3166666666666673 48.500000000000007 8.5277777777777803 3.9000000000000004 0.023541666666666673 5.2111111111111121 77.416666666666671 0.029000000000000005 71.166666666666671 0.0055000000000000005 7.166666666666667 52.500000000000007 88.583333333333357 0.011833333333333335 0.059500000000000018 80.77500000000002 61.500000000000007
decision_type=2 2 2 2 2 2 2 2 2 2 2 2 2 2 2 2 2 2 2 2 2 2 2 2 2 2 2 2 2 2
left_child=1 -1 3 7 -3 14 -7 12 -5 11 15 17 13 16 -6 -11 -2 -4 19 -15 -21 -20 -17 -24 25 -25 -27 -10 -19 -30
right_child=2 4 9 8 5 6 -8 -9 27 10 -12 -13 -14 18 -16 22 -18 28 21 20 -22 -23 23 24 -26 26 -28 -29 29 -31
leaf_value=-0.020906016760958872 -0.0011958675161992339 -0.020906016760958872 -0.025131117067925465 -0.0082624776373626148 0.014010848043728631 0.0022585447470287955 -0.022125204208747695 0.10395468365863246 0.076078634779596449 0.025775336767048896 0.12423086771245054 0.13830766473736689 0.027363134878651569 0.00044253201305892724 -0.020906016760958872 0.11584838922768972 -0.01341250969482667 0.1635373864701356 -0.0030007388566147377 0.045074720495156109 0.16183459278028389 0.0027389450573961529 0.20576654206639647 -0.0099399177572630729 0.064643721969658161 -0.051076813464069316 0.070250108910594675 0.10956225533147515 0.1314129630275791 -0.011558621951358983
leaf_weight=4576 520 1485 39 40 32 120 111 30 73 1763 153 260 795 125 99 62 189 70 275 52 34 1156 32 174 233 39 295 30 151 88
leaf_count=4576 520 1485 39 40 32 120 111 30 73 1763 153 260 795 125 99 62 189 70 275 52 34 1156 32 174 233 39 295 30 151 88
internal_value=-0.00333276 -0.00955745 0.00265424 0.000757005 -0.00546156 -0.00089779 0.00351732 0.000377834 0.00917832 0.00452888 0.00385769 0.00756579 0.000214558 -0.000611442 -0.00868321 0.00347383 -0.00326164 0.00474138 0.000532887 0.00503555 0.0113372 -0.000131027 0.00558383 0.00489974 0.0043691 0.00265748 0.00531437 0.0137136 0.00610841 0.0040272
internal_weight=13101 6423 6678 3319 1847 362 231 3176 143 3359 2751 608 3146 2351 131 2598 709 348 1642 211 86 1431 835 773 741 508 334 103 309 239
internal_count=13101 6423 6678 3319 1847 362 231 3176 143 3359 2751 608 3146 2351 131 2598 709 348 1642 211 86 1431 835 773 741 508 334 103 309 239
is_linear=0
shrinkage=0.05


Tree=18
num_leaves=31
num_cat=0
split_feature=4 19 17 23 19 19 3 12 5 2 19 14 15 19 12 11 19 2 24 3 3 9 19 13 16 12 6 7 9 13
split_gain=190.298 17.397 8.41152 3.75108 4.97727 5.97298 3.60623 3.5581 2.6776 3.54643 2.36164 2.356 2.34466 2.53444 3.14654 2.49591 2.97352 2.33727 2.09852 2.00741 1.93792 3.3641 2.00395 2.16071 1.86667 2.26305 2.13378 1.75468 1.72358 1.67286
threshold=1.0000000180025095e-35 45.500000000000007 7.5000000000000009 3.5000000000000004 51.500000000000007 59.500000000000007 11.833333333333334 8.1055555555555561 1.5000000000000002 0.04416666666666668 48.500000000000007 0.014142857142857146 4.5277777777777786 56.500000000000007 2.5634920634920637 3.5000000000000004 52.500000000000007 1.0000000180025095e-35 3.2500000000000004 8.5833333333333339 13.41666666666667 12.900000000000002 79.000000000000014 0.2985000000000001 89.850000000000009 3.2361111111111116 3.1000000000000005 0.46300000000000013 6.7083333333333348 0.015857142857142865
decision_type=2 2 2 2 2 2 2 2 2 2 2 2 2 2 2 2 2 2 2 2 2 2 2 2 2 2 2 2 2 2
left_child=1 -1 6 -3 10 -6 7 12 -8 11 -5 -10 13 -2 -15 17 -17 19 20 -14 22 -22 24 -24 29 -26 -27 -25 -28 -4
right_child=2 3 18 4 5 -7 8 -9 9 -11 -12 -13 15 14 -16 16 -18 -19 -20 -21 21 -23 23 27 25 26 28 -29 -30 -31
leaf_value=-0.019860715922910929 -0.0018286522967664754 -0.019860715922910929 -0.012968506666692581 0.013310305641542198 0.0021456175096773557 -0.021018943998310308 -0.007849353755494488 0.09875694947570085 0.076776702053846957 0.10663080381884787 -0.019860715922910929 -0.0034245481586032247 0.155888412607465 0.11993771911161435 0.00087095128888859405 0.0078714180733452186 0.073455399063585503 -0.0015438360747947134 0.014447734473589486 -0.0091311754197283962 0.1562815633083561 0.032310540190141381 0.24003031651120096 0.06494087234740431 0.043675976383014646 0.19680873652135053 0.07512696763770127 0.25796873750766242 0.13918519271846938 0.053079612306193957
leaf_weight=4576 866 1485 180 32 120 111 40 30 33 32 99 38 34 47 307 714 303 845 758 30 30 52 32 73 266 68 150 39 207 1504
leaf_count=4576 866 1485 180 32 120 111 40 30 33 32 99 38 34 47 307 714 303 845 758 30 30 52 32 73 266 68 150 39 207 1504
internal_value=-0.00341291 -0.00955745 0.00249701 -0.00546156 -0.00089779 0.00351732 0.000711811 0.000362091 0.00847902 0.0127427 -0.00868321 0.00651408 0.000198665 -0.00151639 0.00204802 0.00128505 0.00298673 -0.000618812 0.00426094 0.00859375 0.0049356 0.0125 0.00468936 0.0104167 0.00434211 0.00653039 0.00879412 0.00714286 0.0072479 0.00344418
internal_weight=13101 6423 6678 1847 362 231 3319 3176 143 103 131 71 3146 1220 354 1926 1017 909 3359 64 2601 82 2519 144 2375 691 425 112 357 1684
internal_count=13101 6423 6678 1847 362 231 3319 3176 143 103 131 71 3146 1220 354 1926 1017 909 3359 64 2601 82 2519 144 2375 691 425 112 357 1684
is_linear=0
shrinkage=0.05


Tree=19
num_leaves=31
num_cat=0
split_feature=4 19 17 23 19 19 3 12 5 2 19 19 15 19 2 10 15 19 8 13 7 9 4 14 4 24 26 9 7 9
split_gain=183.737 17.397 8.1417 3.75108 4.97727 5.97298 3.45112 3.64952 2.50977 3.79995 2.36164 2.30388 2.32738 2.25889 4.32571 3.07879 2.82836 2.38597 2.38274 2.36267 2.49086 2.0796 2.04227 1.98127 1.93797 1.92584 2.1082 1.86575 1.99566 1.7121
threshold=1.0000000180025095e-35 45.500000000000007 7.5000000000000009 3.5000000000000004 51.500000000000007 59.500000000000007 11.833333333333334 7.3166666666666673 1.5000000000000002 0.04416666666666668 48.500000000000007 54.500000000000007 4.3166666666666673 71.500000000000014 0.028333333333333339 89.100000000000009 6.8944444444444457 44.500000000000007 0.057083333333333347 0.22562500000000002 0.20700000000000005 3.9000000000000004 79.583333333333357 0.014142857142857146 70.166666666666671 2.2500000000000004 1.0000000180025095e-35 3.2250000000000005 0.12400000000000003 5.1000000000000005
decision_type=2 2 2 2 2 2 2 2 2 2 2 2 2 2 2 2 2 2 2 2 2 2 2 2 2 2 2 2 2 2
left_child=1 -1 6 -3 10 -6 7 11 -8 23 -5 12 21 15 -15 -4 22 18 -17 20 25 27 -16 -10 -14 26 -19 -2 -29 -26
right_child=2 3 13 4 5 -7 8 -9 9 -11 -12 -13 24 14 16 17 -18 19 -20 -21 -22 -23 -24 -25 29 -27 -28 28 -30 -31
leaf_value=-0.018867680126765381 -0.0019102892038002084 -0.018867680126765381 0.018241454392956387 0.012644790359465086 0.0020383366341934885 -0.019967996798394796 -0.0074568860677197649 0.091499367945008583 0.072937866951154604 0.10129926362790548 -0.018867680126765381 0.022362872494980236 -0.0027735101100442639 0.24244363990012641 0.16269960429846575 0.00057153604448741406 0.17834984527422418 0.2116126194708636 0.12307404922189538 -0.020843963959972536 0.12256251173508848 -0.012650451595247005 0.0035557416979585532 -0.0032533207506730611 0.04278048559728629 0.068009839925711774 0.095965823089753155 0.072676190721815054 -0.00061311167129594066 0.001068898302990512
leaf_weight=4576 435 1485 1620 32 120 111 40 63 33 32 99 788 316 54 37 303 81 53 57 59 49 189 180 38 132 742 124 41 33 1179
leaf_count=4576 435 1485 1620 32 120 111 40 63 33 32 99 788 316 54 37 303 81 53 57 59 49 189 180 38 132 742 124 41 33 1179
internal_value=-0.00351977 -0.00955745 0.00228736 -0.00546156 -0.00089779 0.00351732 0.000531033 0.000188917 0.00812937 0.0122573 -0.00868321 -5.22004e-05 -0.000844086 0.00402277 0.0078125 0.00357915 0.00545302 0.00530822 0.00180556 0.00653603 0.0071281 -0.00325931 0.00247696 0.00580986 0.000192071 0.00654244 0.0112288 -0.00159627 0.00574324 0.00103928
internal_weight=13101 6423 6678 1847 362 231 3319 3176 143 103 131 3113 2325 3359 352 3007 298 1387 360 1027 968 698 217 71 1627 919 177 509 74 1311
internal_count=13101 6423 6678 1847 362 231 3319 3176 143 103 131 3113 2325 3359 352 3007 298 1387 360 1027 968 698 217 71 1627 919 177 509 74 1311
is_linear=0
shrinkage=0.05


Tree=20
num_leaves=31
num_cat=0
split_feature=4 19 15 11 19 19 7 23 19 19 2 19 14 0 14 9 9 6 13 7 14 10 1 9 13 8 14 19 2 26
split_gain=171.584 20.4945 6.12823 5.42823 4.67178 4.50844 3.70712 3.44699 6.52555 5.82867 3.3154 3.0616 2.89683 2.65461 2.61567 2.56376 2.71575 2.27653 2.2195 2.5972 3.32654 2.10956 2.74466 2.14703 2.08877 2.08929 2.07392 2.04647 2.0202 1.84201
threshold=62.583333333333336 45.500000000000007 6.5634920634920642 3.5000000000000004 52.500000000000007 55.500000000000007 0.021000000000000005 3.5000000000000004 51.500000000000007 59.500000000000007 0.20166666666666674 49.500000000000007 0.16950000000000004 4.8333333333333348 0.14050000000000004 9.1000000000000014 9.4500000000000011 5.291666666666667 0.0070714285714285731 0.017750000000000005 0.014142857142857146 78.550000000000011 0.038333333333333344 8.7750000000000021 0.37414285714285717 0.13100000000000003 0.059500000000000018 48.500000000000007 0.021666666666666671 1.0000000180025095e-35
decision_type=2 2 2 2 2 2 2 2 2 2 2 2 2 2 2 2 2 2 2 2 2 2 2 2 2 2 2 2 2 2
left_child=1 -1 5 -4 12 10 28 -3 27 -10 -2 -12 14 -8 18 21 -17 -15 -5 20 -20 -6 -23 -24 25 -19 -18 -9 -7 -22
right_child=2 7 3 4 15 6 13 8 9 -11 11 -13 -14 17 -16 16 26 24 19 -21 29 22 23 -25 -26 -27 -28 -29 -30 -31
leaf_value=-0.017924296120427112 -0.0016417052217381435 -0.017924296120427112 -0.00081856162458372468 -0.018506526994034964 -0.010458766791386676 0.11866024533048457 0.0093156765941803995 0.012012550841491831 0.0019364198024838131 -0.018969596958475055 0.0018306332928620301 0.013560869202992522 0.12156533373933598 0.14121867175973998 -0.041185617542543775 0.21280730359262023 0.052095840896334289 -0.015044009577223098 -0.029021888223996851 0.033198803553311555 0.086501761369912528 0.13950556994440594 0.073297969083732761 -0.027360659458953985 0.20276387590992934 0.13183556817251621 0.072865856102568599 -0.017924296120427112 0.22760137694401827 0.071038930230489183
leaf_weight=4611 2075 1565 567 208 60 66 845 31 127 117 56 31 49 111 65 53 127 84 49 1085 104 100 333 70 57 72 144 112 33 103
leaf_count=4611 2075 1565 567 208 60 66 845 31 127 117 56 31 49 111 65 53 127 84 49 1085 104 100 333 70 57 72 144 112 33 103
internal_value=-0.00367849 -0.00939167 0.00204865 0.00365335 0.00463725 0.000590379 0.00295741 -0.00509734 -0.000872093 0.00409836 -0.000797872 0.00876437 0.00307426 0.00217066 0.00271066 0.00756764 0.0111111 0.00601852 0.00312298 0.00386838 0.00839844 0.00552842 0.00658549 0.00474566 0.00299296 0 0.00908672 -0.00935315 0.0122475 0.0111715
internal_weight=13110 6563 6547 3117 2550 3430 1268 1952 387 244 2162 87 1663 1169 1614 887 324 324 1549 1341 256 563 503 403 213 156 271 143 99 207
internal_count=13110 6563 6547 3117 2550 3430 1268 1952 387 244 2162 87 1663 1169 1614 887 324 324 1549 1341 256 563 503 403 213 156 271 143 99 207
is_linear=0
shrinkage=0.05


Tree=21
num_leaves=31
num_cat=0
split_feature=4 19 17 23 19 19 24 19 7 13 19 19 7 14 2 19 9 12 12 3 14 10 19 15 8 7 1 12 15 3
split_gain=163.698 19.4209 7.93704 3.85588 5.80156 6.05842 3.49908 3.15559 3.4833 2.72087 3.42931 2.07054 2.27716 4.46511 3.13928 4.11297 2.6612 2.86406 2.04735 2.02439 2.49908 2.01665 1.99458 1.81854 1.73595 1.72127 1.78135 1.78789 2.37868 1.88803
threshold=1.0000000180025095e-35 45.500000000000007 7.5000000000000009 3.5000000000000004 51.500000000000007 59.500000000000007 3.2500000000000004 54.500000000000007 0.017750000000000005 0.0081666666666666676 51.500000000000007 80.500000000000014 0.049000000000000009 0.056125000000000015 0.038333333333333344 68.500000000000014 6.7083333333333348 2.9500000000000006 6.7071428571428582 11.41666666666667 0.04414285714285715 82.100000000000009 48.500000000000007 6.6833333333333345 0.10300000000000002 0.22100000000000006 0.18166666666666673 4.4722222222222232 6.3166666666666673 7.5833333333333348
decision_type=2 2 2 2 2 2 2 2 2 2 2 2 2 2 2 2 2 2 2 2 2 2 2 2 2 2 2 2 2 2
left_child=1 -1 7 -3 22 -6 9 19 -9 10 -4 12 13 -11 15 25 -15 -18 -10 -2 -21 -13 -5 -23 -19 26 27 28 -14 -30
right_child=2 3 6 4 5 -7 -8 8 18 11 -12 21 14 16 -16 -17 17 24 -20 20 -22 23 -24 -25 -26 -27 -28 -29 29 -31
leaf_value=-0.017028081314405755 -0.0011008244500190223 -0.017028081314405755 -0.0073114822574399723 0.011411923299417238 0.0018395988123596219 -0.018021117110551304 0.0037403290943318762 0.12392158886452309 0.013283676638106685 0.040091686715155977 0.11486159812181546 0.30181146609761356 -0.0004101415771285311 0.077320960334051281 0.020713912841825135 0.22723946434426653 0.017023048216320759 0.17328003477097981 0.11615053788475545 -5.8529464201817483e-05 0.092372601048941835 0.050694762637107295 -0.017028081314405755 0.24326456014748141 0.1143776782608442 0.18707236499140656 -0.023777967362873544 -0.0075969263119926474 0.1865688950844043 0.06214690059293522
leaf_weight=4595 2318 1509 331 31 124 115 754 55 747 430 72 30 68 106 877 35 36 71 42 85 49 63 100 36 74 82 63 65 30 117
leaf_count=4595 2318 1509 331 31 124 115 754 55 747 430 72 30 68 106 877 35 36 71 42 85 49 63 100 36 74 82 63 65 30 117
internal_value=-0.00380816 -0.00946478 0.00171037 -0.00518228 -0.000608108 0.0040272 0.00342814 -3.03398e-05 0.00260664 0.00430201 0.000527295 0.00499885 0.00461295 0.00688633 0.00339379 0.00673913 0.011716 0.0154006 0.00175856 -0.00093801 0.00503731 0.0111434 -0.00906489 0.00770202 0.0185345 0.00538235 0.00382653 0.00553571 0.00773256 0.0113095
internal_weight=13110 6474 6636 1879 370 239 3340 3296 844 2586 403 2183 2054 717 1337 460 287 181 789 2452 134 129 131 99 145 425 343 280 215 147
internal_count=13110 6474 6636 1879 370 239 3340 3296 844 2586 403 2183 2054 717 1337 460 287 181 789 2452 134 129 131 99 145 425 343 280 215 147
is_linear=0
shrinkage=0.05


Tree=22
num_leaves=31
num_cat=0
split_feature=4 19 4 19 12 23 19 19 12 3 16 16 24 12 7 23 10 19 16 8 1 2 0 12 12 3 8 12 9 14
split_gain=163.036 19.4209 5.23323 5.29691 3.87092 3.85588 5.80156 6.05842 2.8772 2.64279 2.21046 3.26927 2.21634 2.14471 2.08956 2.08596 2.03906 1.99458 1.95173 2.67103 3.30476 3.29626 3.19479 2.35586 2.62893 2.1778 1.88785 2.24525 2.85791 1.72053
threshold=1.0000000180025095e-35 45.500000000000007 75.416666666666671 49.500000000000007 1.8452380952380956 3.5000000000000004 51.500000000000007 59.500000000000007 7.5277777777777786 14.500000000000002 86.683333333333351 85.527777777777786 1.5000000000000002 1.8819444444444446 0.40100000000000008 2.5000000000000004 88.77500000000002 48.500000000000007 88.950000000000017 0.059000000000000018 0.59000000000000019 0.041666666666666678 2.5833333333333335 5.7638888888888902 2.2678571428571432 11.583333333333334 0.15633333333333335 3.4365079365079372 6.2250000000000005 0.18683333333333338
decision_type=2 2 2 2 2 2 2 2 2 2 2 2 2 2 2 2 2 2 2 2 2 2 2 2 2 2 2 2 2 2
left_child=1 -1 13 4 -4 -3 17 -8 9 18 11 -6 -12 15 -15 -2 -14 -7 19 20 23 -21 29 24 -5 26 -24 -28 -29 -23
right_child=2 5 3 8 10 6 7 -9 -10 -11 12 -13 16 14 -16 -17 -18 -19 -20 21 -22 22 25 -25 -26 -27 27 28 -30 -31
leaf_value=-0.016176677248685468 0.00017476393208811782 -0.016176677248685468 -0.0081722238658884176 0.053841419764822755 0.0098000988240275096 0.010841327134446377 0.0017476188717416409 -0.017120061255023737 0.19832080628019388 0.050458280643804622 0.13526771687938438 0.085666364850724611 -0.015080000055384457 -0.0030624907324664275 0.032046546849662148 0.062599401710957348 0.0060308034649919628 -0.016176677248685468 0.091799232270345532 0.13797196793440361 0.20252661854664816 0.060730449811193146 -0.0018594713919338425 0.14534687385590331 -0.0045334685968837609 0.10748842822979816 -0.020891694609967471 0.03900733122942919 0.12905298909335985 0.051808784685654724
leaf_weight=4595 69 1509 333 56 616 31 124 115 47 33 72 104 361 1181 77 38 1106 100 648 60 43 156 486 47 731 50 61 117 102 42
leaf_count=4595 69 1509 333 56 616 31 124 115 47 33 72 104 361 1181 77 38 1106 100 648 60 43 156 486 47 731 50 61 117 102 42
internal_value=-0.0038196 -0.00946478 0.00168776 0.0024023 0.000790895 -0.00518228 -0.000608108 0.0040272 0.00396137 0.0037424 0.00153276 0.00381944 0.000462963 -0.00107143 -0.00164944 0.0057243 4.2604e-05 -0.00906489 0.00356387 0.00277422 0.00072691 0.004446 0.00377219 2.9976e-05 -0.000619441 0.00238971 0.00172977 0.005 0.00736301 0.0094697
internal_weight=13110 6474 6636 5271 2592 1879 370 239 2679 2632 2259 720 1539 1365 1258 107 1467 131 2599 1951 877 1074 1014 834 787 816 766 280 219 198
internal_count=13110 6474 6636 5271 2592 1879 370 239 2679 2632 2259 720 1539 1365 1258 107 1467 131 2599 1951 877 1074 1014 834 787 816 766 280 219 198
is_linear=0
shrinkage=0.05


Tree=23
num_leaves=31
num_cat=0
split_feature=4 19 17 23 19 19 24 19 19 7 9 15 2 3 13 1 1 15 19 7 2 7 13 8 8 12 13 19 7 2
split_gain=158.009 19.4209 6.62482 3.85588 5.80156 6.05842 3.02226 2.76859 2.58411 3.14118 2.32489 2.21873 2.42259 2.19977 2.17765 2.16726 2.08003 2.98227 1.99458 1.83578 1.8036 2.20893 2.02398 1.74813 2.82516 1.70574 1.62624 3.54058 1.75186 2.07741
threshold=1.0000000180025095e-35 45.500000000000007 7.5000000000000009 3.5000000000000004 51.500000000000007 59.500000000000007 3.2500000000000004 72.500000000000014 54.500000000000007 0.017750000000000005 6.1000000000000005 6.5857142857142863 0.21583333333333338 6.166666666666667 0.0070714285714285731 0.19833333333333339 0.22000000000000006 8.5277777777777803 48.500000000000007 0.24000000000000005 0.18833333333333338 0.34900000000000003 0.25788888888888895 0.11450000000000003 0.099000000000000019 6.7071428571428582 0.08050000000000003 55.500000000000007 0.24000000000000005 0.031666666666666676
decision_type=2 2 2 2 2 2 2 2 2 2 2 2 2 2 2 2 2 2 2 2 2 2 2 2 2 2 2 2 2 2
left_child=1 -1 8 -3 18 -6 7 11 10 -10 19 12 26 -12 -13 -16 -17 -18 -5 -2 21 22 -9 24 -15 -11 27 -4 -28 -30
right_child=2 3 6 4 5 -7 -8 20 9 25 13 14 -14 23 15 16 17 -19 -20 -21 -22 -23 -24 -25 -26 -27 28 -29 29 -31
leaf_value=-0.015367843386251193 -0.0027768651288131666 -0.015367843386251193 0.010318136892352506 0.010299260777724056 0.0016602379281545566 -0.01626405819227255 0.0017561579578883907 0.23157766692246967 0.11547701539933666 0.011733564225471206 0.092766042487148107 -0.030174123013739809 0.20505882117488772 0.00017107043885247199 0.062536828170013811 -0.067845070288222245 -0.014983851777001301 0.16523131134798416 -0.015367843386251193 0.00021830205978427554 0.041975140864129082 0.21487825862299534 0.003693875590910123 0.041994593816873906 -0.036511645813077309 0.10228603581575713 -0.021295511345583495 0.11728794553236753 0.1996818213468724 -0.02536910521440245
leaf_weight=4595 1129 1509 414 31 124 115 754 31 55 747 38 114 56 1021 1099 34 94 47 100 111 71 83 57 93 60 42 298 75 53 60
leaf_count=4595 1129 1509 414 31 124 115 754 31 55 747 38 114 56 1021 1099 34 94 47 100 111 71 83 57 93 60 42 298 75 53 60
internal_value=-0.00390732 -0.00946478 0.00151447 -0.00518228 -0.000608108 0.0040272 0.00308383 0.00389598 -7.58495e-05 0.00231043 -0.000897227 0.00337031 0.00151674 0.000660066 0.00464697 0.0052394 7.14286e-05 0.00274823 -0.00906489 -0.00241935 0.0089876 0.011769 0.00625 0.000276831 -0.000289084 0.00150507 0.000888889 0.00283742 -0.00142944 0.00387168
internal_weight=13110 6474 6636 1879 370 239 3340 2586 3296 844 2452 2344 956 1212 1388 1274 175 141 131 1240 242 171 88 1174 1081 789 900 489 411 113
internal_count=13110 6474 6636 1879 370 239 3340 2586 3296 844 2452 2344 956 1212 1388 1274 175 141 131 1240 242 171 88 1174 1081 789 900 489 411 113
is_linear=0
shrinkage=0.05


Tree=24
num_leaves=31
num_cat=0
split_feature=4 19 4 12 23 19 19 19 14 19 10 15 13 23 19 10 12 14 19 9 12 11 7 14 24 13 0 19 6 15
split_gain=154.129 19.4209 4.93795 4.13044 3.85588 5.80156 6.05842 3.18511 2.22893 1.99458 1.91541 1.72133 2.21254 2.41058 2.63652 1.94788 1.86799 2.66963 2.22712 2.20012 1.85892 1.775 2.775 3.5702 3.75355 3.19934 3.11809 2.8852 3.12911 2.50879
threshold=1.0000000180025095e-35 45.500000000000007 77.583333333333357 1.8452380952380956 3.5000000000000004 51.500000000000007 59.500000000000007 42.500000000000007 0.29694444444444451 48.500000000000007 83.90000000000002 6.0500000000000007 0.24050000000000002 2.5000000000000004 57.500000000000007 80.366666666666688 4.3875000000000011 0.066833333333333356 64.500000000000014 3.6333333333333337 5.5857142857142863 3.5000000000000004 0.047083333333333345 0.058166666666666679 2.7500000000000004 0.003166666666666667 2.5833333333333335 71.500000000000014 5.366666666666668 8.1055555555555561
decision_type=2 2 2 2 2 2 2 2 2 2 2 2 2 2 2 2 2 2 2 2 2 2 2 2 2 2 2 2 2 2
left_child=1 -1 -2 -4 -3 9 -7 10 11 -6 -5 12 13 14 -9 -13 19 20 -19 -14 -18 -17 23 25 -25 -23 29 -28 -29 -24
right_child=2 4 3 7 5 6 -8 8 -10 -11 -12 15 16 -15 -16 21 17 18 -20 -21 -22 22 26 24 -26 -27 27 28 -30 -31
leaf_value=-0.014599451216938633 -0.0013054075251965449 -0.014599451216938633 -0.0050060045501876815 0.055386460727469944 0.0097842977388378563 0.0015772260317468312 -0.015450855282658922 0.020174222410723822 0.18819698275901597 -0.014599451216938633 -0.0038128586096980916 0.068171771286268973 0.054384727286785672 -0.011777180814436128 0.12078571550576976 -0.001032686016045803 0.0052867330003453453 -0.057562458261835592 0.058423817235162261 0.19693328675084004 0.16102498884877281 0.068544872645724397 0.035976721447037223 0.16903448139343327 0.058923230749545689 0.023808296099165099 0.0045604117591333902 0.22795384790075507 0.035044064888122277 0.081496382762495892
leaf_weight=4595 1731 1509 337 44 31 124 115 707 38 100 522 173 54 386 48 241 53 38 86 57 55 30 96 68 266 446 954 44 68 94
leaf_count=4595 1731 1509 337 44 31 124 115 707 38 100 522 173 54 386 48 241 53 38 86 57 55 30 96 68 266 446 954 44 68 94
internal_value=-0.00397597 -0.00946478 0.00137884 0.00218909 -0.00518228 -0.000608108 0.0040272 0.00258319 0.00307971 -0.00906489 -0.000927562 0.00296418 0.00161725 0.00055872 0.00220199 0.00377016 0.00513848 0.00258621 -0.00241935 0.010473 0.00833333 0.00338643 0.00386012 0.00614198 0.0101048 0.00336134 0.00238854 0.00133677 0.00892857 0.00828947
internal_weight=13110 6474 6636 4905 1879 370 239 4568 4002 131 566 3964 1484 1141 755 2480 343 232 124 111 108 2307 2066 810 334 476 1256 1066 112 190
internal_count=13110 6474 6636 4905 1879 370 239 4568 4002 131 566 3964 1484 1141 755 2480 343 232 124 111 108 2307 2066 810 334 476 1256 1066 112 190
is_linear=0
shrinkage=0.05


Tree=25
num_leaves=31
num_cat=0
split_feature=4 19 4 19 19 14 13 12 19 2 4 15 6 13 9 19 7 19 2 2 15 4 6 15 13 14 24 2 16 6
split_gain=154.913 19.5146 5.35477 3.82375 2.94419 3.14261 2.80367 2.65185 2.38395 2.33832 2.45413 2.21608 3.76174 3.26013 2.27905 2.18732 1.971 1.78949 1.71818 2.02598 1.61108 2.46356 2.14899 1.59329 1.55921 1.53776 1.82364 1.69108 2.21134 2.40053
threshold=1.0000000180025095e-35 45.500000000000007 77.583333333333357 50.500000000000007 54.500000000000007 0.16612500000000005 0.017638888888888895 1.8452380952380956 48.500000000000007 0.025833333333333337 79.166666666666671 6.6125000000000007 2.9000000000000004 0.30236111111111114 7.366666666666668 64.500000000000014 0.41225000000000006 55.500000000000007 0.20500000000000004 0.28833333333333339 4.6833333333333345 81.833333333333357 1.4500000000000002 6.0500000000000007 0.26950000000000007 1.0000000180025095e-35 1.5000000000000002 0.015833333333333335 80.354166666666671 2.2250000000000005
decision_type=2 2 2 2 2 2 2 2 2 2 2 2 2 2 2 2 2 2 2 2 2 2 2 2 2 2 2 2 2 2
left_child=1 -1 16 8 5 7 -6 20 -3 -8 -11 14 -13 17 23 -5 -2 -14 -7 -20 -4 -22 -23 -12 -25 -9 -27 28 -28 -30
right_child=2 3 4 15 6 18 9 25 -10 10 11 12 13 -15 -16 -17 -18 -19 19 -21 21 22 -24 24 -26 26 27 -29 29 -31
leaf_value=-0.013869478656091703 -0.0023290239098713861 -0.013869478656091703 -0.013562317749557684 -0.013869478656091703 0.11401839542126001 0.16512287514474364 0.098039909985355528 -0.0076719802001000261 -0.013869478656091703 0.12541114362440031 -0.00056003635827092668 0.093967161152010523 0.067996461341252326 0.21951523963687292 -0.055673063560499204 -0.013869478656091703 0.046873923087169179 0.002952428261820439 -0.0007809447097928857 0.14048320336487691 -0.046408232832205576 0.12942751019798138 -0.0047557043226783002 0.11669381445677969 -0.0061606426032492839 0.1209300088225084 0.086899267012424994 0.010569137440608618 0.088334326518277204 0.027645724710171671
leaf_weight=4606 1633 299 140 719 82 33 246 254 725 50 484 41 61 55 47 144 81 328 47 30 45 50 94 62 36 125 33 1782 162 615
leaf_count=4606 1633 299 140 719 82 33 246 254 725 50 484 41 61 55 47 144 81 328 47 30 45 50 94 62 36 125 33 1782 162 615
internal_value=-0.00395625 -0.00944286 0.00142836 -0.00516031 0.00226948 0.00145894 0.00412198 0.00118182 -0.00722656 0.00359929 0.00266323 0.00217684 0.00471649 0.00337838 0.000218601 -0.00270857 -0.000977246 0.00176735 0.00977273 0.00568182 -0.00307751 -6.61376e-05 0.003125 0.00107388 0.00688776 0.00165348 0.00200129 0.00171682 0.00361111 0.00307272
internal_weight=13109 6493 6616 1887 4902 3410 1492 3300 1024 1410 1164 1114 485 444 629 863 1714 389 110 77 329 189 144 582 98 2971 2717 2592 810 777
internal_count=13109 6493 6616 1887 4902 3410 1492 3300 1024 1410 1164 1114 485 444 629 863 1714 389 110 77 329 189 144 582 98 2971 2717 2592 810 777
is_linear=0
shrinkage=0.05


Tree=26
num_leaves=31
num_cat=0
split_feature=4 19 19 23 19 17 19 24 1 12 2 17 7 12 3 15 12 7 19 12 19 15 3 14 1 7 19 15 10 2
split_gain=152.767 19.5146 3.82375 6.06147 6.49444 3.62259 2.38395 2.36061 3.03365 2.19221 2.00328 2.8987 1.97013 1.98242 1.87671 2.15865 4.05532 1.77521 1.76465 1.85467 1.65756 1.6286 1.93736 1.99038 2.21514 1.92401 1.60311 1.59368 2.41168 2.60484
threshold=1.0000000180025095e-35 45.500000000000007 50.500000000000007 3.5000000000000004 59.500000000000007 7.5000000000000009 48.500000000000007 3.2500000000000004 0.054166666666666682 7.354166666666667 0.0041666666666666675 6.5000000000000009 0.34500000000000003 6.2111111111111121 11.833333333333334 3.3666666666666671 2.8452380952380958 0.086750000000000008 69.500000000000014 4.8452380952380958 40.500000000000007 6.5857142857142863 5.5833333333333348 0.12211111111111114 0.068333333333333343 0.28700000000000009 68.500000000000014 5.2678571428571432 88.90000000000002 0.12500000000000003
decision_type=2 2 2 2 2 2 2 2 2 2 2 2 2 2 2 2 2 2 2 2 2 2 2 2 2 2 2 2 2 2
left_child=1 -1 6 -4 -5 9 -3 12 -9 10 11 20 21 26 15 16 -12 -11 -17 -20 -2 22 27 -24 -25 -23 -14 -7 29 -29
right_child=5 2 3 4 -6 7 -8 8 -10 17 14 -13 13 -15 -16 18 -18 -19 19 -21 -22 25 23 24 -26 -27 -28 28 -30 -31
leaf_value=-0.013176004723287116 0.0034151219714677831 -0.013176004723287116 -0.013176004723287116 0.002191838662964074 -0.013984838585721387 0.022670335826215627 -0.013176004723287116 0.029932688448969014 -0.016991326931294373 0.0094904772735762231 0.033715722608136101 0.18593206180661059 0.10702930817746883 -0.049535456629623199 0.056526470438460902 -0.001860213027803026 -0.00057209386270069558 0.10976848425247927 0.20236720033271888 -0.0071661825796198956 -0.021706513015637332 0.054876473860041831 -0.024015567402781046 0.13643791472736688 -0.0046987372305604125 -0.038599657607081866 0.15492513644561226 -0.026798353217693218 0.16615368919234116 0.22533604700395285
leaf_weight=4606 63 299 612 128 123 529 725 389 378 34 139 34 60 32 111 2171 226 36 57 42 373 1342 252 30 46 33 94 66 48 31
leaf_count=4606 63 299 612 128 123 529 725 389 378 34 139 34 60 32 111 2171 226 36 57 42 373 1342 252 30 46 33 94 66 48 31
internal_value=-0.00399439 -0.00944286 -0.00516031 -0.00270857 0.00383466 0.00135278 -0.00722656 0.00251502 8.14863e-05 0.000174985 -1.55473e-05 -0.00303191 0.00324327 0.00819892 0.000500728 0.000232448 0.00380137 0.00892857 -0.00034141 0.00618687 -0.00412844 0.00285549 0.00132236 -0.00182927 0.00526316 0.00397273 0.0105519 0.00285608 0.0075 0.00296392
internal_weight=13109 6493 1887 863 251 6616 1024 3330 767 3286 3216 470 2563 186 2746 2635 365 70 2270 99 436 2377 1002 328 76 1375 154 674 145 97
internal_count=13109 6493 1887 863 251 6616 1024 3330 767 3286 3216 470 2563 186 2746 2635 365 70 2270 99 436 2377 1002 328 76 1375 154 674 145 97
is_linear=0
shrinkage=0.05


Tree=27
num_leaves=31
num_cat=0
split_feature=4 19 17 19 23 19 19 12 24 1 7 2 17 3 12 19 7 7 0 19 19 19 19 15 14 0 4 3 12 9
split_gain=147.887 19.5146 4.16336 3.82375 6.06147 6.49444 2.38395 2.32368 2.18906 2.55134 1.77521 1.66759 1.81289 1.79458 1.59756 1.55775 1.45992 2.67033 2.24795 1.4859 1.31742 2.11562 1.44643 1.26781 2.68879 1.21416 2.39413 1.81209 1.62714 1.21347
threshold=1.0000000180025095e-35 45.500000000000007 7.5000000000000009 50.500000000000007 3.5000000000000004 59.500000000000007 48.500000000000007 7.354166666666667 3.2500000000000004 0.054166666666666682 0.086750000000000008 0.0041666666666666675 6.5000000000000009 11.833333333333334 3.2111111111111117 40.500000000000007 0.071000000000000021 0.08100000000000003 4.416666666666667 42.500000000000007 67.500000000000014 54.500000000000007 51.500000000000007 7.5857142857142863 0.024142857142857146 3.5833333333333335 84.416666666666671 3.4166666666666674 1.3541666666666667 8.5500000000000025
decision_type=2 2 2 2 2 2 2 2 2 2 2 2 2 2 2 2 2 2 2 2 2 2 2 2 2 2 2 2 2 2
left_child=1 -1 7 6 20 -6 -3 11 14 -10 -9 12 15 16 -4 -2 18 -18 25 -19 21 22 -5 -21 -25 27 -27 28 -13 -26
right_child=2 3 8 4 5 -7 -8 10 9 -11 -12 13 -14 -15 -16 -17 17 19 -20 23 -22 -23 -24 24 29 26 -28 -29 -30 -31
leaf_value=-0.012517204487122761 0.0032443658728943947 -0.012517204487122761 0.014967466831039465 0.037482795512877247 0.0020822467298158734 -0.013285596656435318 -0.012517204487122761 0.009015953409897413 0.028436054026520566 -0.016141760584729648 0.10428006003985531 -0.0010219161474575578 0.17663545871628006 0.05370014691653785 0.059937008909740477 -0.020621187364855454 0.16504685936956309 -0.0089583316572192217 -0.010396003371070295 0.00035513585843841011 -0.012517204487122761 -0.012517204487122761 -0.012517204487122761 -0.0076682067451289363 0.1370781748320852 -0.0021649496713214921 0.10315652893725975 -0.0021696229749494146 0.078985579363887115 0.046839814433050235
leaf_weight=4606 63 299 812 48 128 123 725 34 389 378 36 42 34 111 1751 373 42 45 268 845 71 205 288 46 55 91 71 1014 57 59
leaf_count=4606 63 299 812 48 128 123 725 34 389 378 36 42 34 111 1751 373 42 45 268 845 71 205 288 46 55 91 71 1014 57 59
internal_value=-0.00408212 -0.00944286 0.00117896 -0.00516031 -0.00270857 0.00383466 -0.00722656 -8.36884e-05 0.00242492 8.14863e-05 0.00892857 -0.000279851 -0.00303191 0.000191187 0.00312622 -0.00389908 -7.11575e-05 0.00132784 -0.00106124 0.000833333 -0.00539216 -0.00455176 -0.00699405 0.00123134 0.0053125 -0.000186275 0.00385802 -0.000774933 0.00568182 0.00942982
internal_weight=13109 6493 6616 1887 863 251 1024 3286 3330 767 70 3216 470 2746 2563 436 2635 1092 1543 1050 612 541 336 1005 160 1275 162 1113 99 114
internal_count=13109 6493 6616 1887 863 251 1024 3286 3330 767 70 3216 470 2746 2563 436 2635 1092 1543 1050 612 541 336 1005 160 1275 162 1113 99 114
is_linear=0
shrinkage=0.05


Tree=28
num_leaves=31
num_cat=0
split_feature=4 19 17 19 19 19 12 24 12 3 7 15 12 0 6 13 7 13 2 12 13 12 7 14 6 8 19 6 16 6
split_gain=144.955 19.5146 4.26904 3.82375 2.38395 2.18732 1.71061 1.68791 1.72322 1.45221 1.36831 1.37062 1.33056 2.8251 1.32477 1.41458 1.32005 1.31284 1.25627 2.60153 3.11791 2.36413 2.47905 2.3503 2.06098 2.05906 2.16633 1.75754 1.43996 1.324
threshold=1.0000000180025095e-35 45.500000000000007 7.5000000000000009 50.500000000000007 48.500000000000007 64.500000000000014 7.3166666666666673 3.2500000000000004 3.2111111111111117 12.16666666666667 0.023666666666666673 5.6833333333333345 4.6833333333333345 4.5833333333333348 2.5500000000000003 0.1341428571428572 0.086750000000000008 0.011055555555555558 0.021666666666666671 3.4365079365079372 0.12837500000000004 3.4722222222222228 0.071000000000000021 0.042928571428571441 4.9000000000000012 0.057083333333333347 63.500000000000007 4.5500000000000007 79.050000000000011 7.4500000000000011
decision_type=2 2 2 2 2 2 2 2 2 2 2 2 2 2 2 2 2 2 2 2 2 2 2 2 2 2 2 2 2 2
left_child=1 -1 6 4 -3 -5 9 8 -4 -2 17 -12 14 -14 -13 -16 -8 -9 19 -10 23 22 -20 27 -22 26 -23 -21 -27 -30
right_child=2 3 7 5 -6 -7 16 10 18 -11 11 12 13 -15 15 -17 -18 -19 21 20 24 25 -24 -25 -26 28 -28 -29 29 -31
leaf_value=-0.011891344262766623 -0.0011685403816397461 -0.011891344262766623 0.014219093489487487 -0.011891344262766623 -0.011891344262766623 -0.011891344262766623 0.0060644135593186767 0.0003557934192065071 -0.016378797412726537 0.049369927117905069 -0.02233599018181074 0.079889161881255888 0.083740740355679438 -0.0079674468144267704 -0.024923024364337389 0.025515439268356779 0.094982799476651031 0.10597577448124207 0.1701344817964906 0.079797812325008516 0.16898541909558817 -0.029602351591406201 0.020230339567233354 0.10915761069176658 0.10602824266928079 -0.0228743742629504 0.11693059924571102 -0.016078245945232671 0.064732620836564572 -0.034973560516123506
leaf_weight=4606 3120 299 812 719 725 144 35 129 58 93 144 58 36 71 199 53 38 77 44 171 41 310 46 46 41 84 58 115 673 64
leaf_count=4606 3120 299 812 719 725 144 35 129 58 93 144 58 36 71 199 53 38 77 44 171 41 310 46 46 41 84 58 115 673 64
internal_value=-0.00413552 -0.00944286 0.00107316 -0.00516031 -0.00722656 -0.00270857 -0.000205417 0.00233483 0.00295064 -0.000377373 0.000277053 -0.00100267 0.00044964 0.00525701 -0.00120968 -0.00277778 0.00736301 0.00376214 0.00383352 0.00603814 0.00742754 0.00301994 0.0108333 0.00527108 0.0161585 0.00242851 -0.000679348 0.00358392 0.00382156 0.00452849
internal_weight=13109 6493 6616 1887 1024 863 3286 3330 2563 3213 767 561 417 107 310 252 73 206 1751 472 414 1279 90 332 82 1189 368 286 821 737
internal_count=13109 6493 6616 1887 1024 863 3286 3330 2563 3213 767 561 417 107 310 252 73 206 1751 472 414 1279 90 332 82 1189 368 286 821 737
is_linear=0
shrinkage=0.05


Tree=29
num_leaves=31
num_cat=0
split_feature=4 19 19 23 19 17 19 24 1 12 12 0 2 17 19 4 1 1 1 0 2 8 1 9 3 3 8 8 14 6
split_gain=144.539 19.5146 3.82375 6.06147 6.49444 3.49546 2.38395 2.01545 2.55465 1.6628 1.59802 1.64138 1.55473 1.77837 1.50901 1.36541 1.86626 5.54766 2.03492 2.27321 2.20391 2.41399 2.17312 1.63333 1.43216 2.28307 2.15406 2.43574 2.4 1.3992
threshold=1.0000000180025095e-35 45.500000000000007 50.500000000000007 3.5000000000000004 59.500000000000007 7.5000000000000009 48.500000000000007 3.2500000000000004 0.054166666666666682 7.3166666666666673 3.0500000000000003 2.5833333333333335 0.0041666666666666675 6.5000000000000009 40.500000000000007 88.833333333333357 0.011666666666666669 0.025833333333333337 0.035833333333333349 2.1666666666666674 0.028333333333333339 0.08100000000000003 0.16416666666666671 3.9000000000000004 7.166666666666667 11.583333333333334 0.094500000000000015 0.021000000000000005 0.0095000000000000015 4.1000000000000005
decision_type=2 2 2 2 2 2 2 2 2 2 2 2 2 2 2 2 2 2 2 2 2 2 2 2 2 2 2 2 2 2
left_child=1 -1 6 -4 -5 9 -3 10 -9 12 -7 -12 13 14 -2 16 -14 -18 -19 20 23 22 -22 -20 26 29 27 28 -17 -26
right_child=5 2 3 4 -6 7 -8 8 -10 -11 11 -13 15 -15 -16 24 17 18 19 -21 21 -23 -24 -25 25 -27 -28 -29 -30 -31
leaf_value=-0.011296777049628292 0.0031405745983316582 -0.011296777049628292 -0.011296777049628292 0.0025727016064634126 -0.012026749610475222 0.0064920909736315979 -0.011296777049628292 0.026996461654234194 -0.014217873046402631 0.049163994120415215 0.085015370698136042 0.042829887269860763 -0.0025752195769428556 0.16786211279954805 -0.019531700977530698 -0.0027578968078111918 0.058157544418183119 -0.012374273554145332 0.05928373433888301 -0.0018902195630381481 0.13515918182780531 0.00039580608459847678 0.00052278940609868372 -0.0019526538951582075 0.013095229472548091 0.054567931244893432 0.16605951533534102 -0.0026654029740881603 0.23518995604404244 -0.017755860828121996
leaf_weight=4606 63 299 612 128 123 650 725 389 378 73 323 1590 574 34 373 30 140 167 42 970 39 77 57 105 172 72 52 107 30 109
leaf_count=4606 63 299 612 128 123 650 725 389 378 73 323 1590 574 34 373 30 140 167 42 970 39 77 57 105 172 72 52 107 30 109
internal_value=-0.00414315 -0.00944286 -0.00516031 -0.00270857 0.00383466 0.00105804 -0.00722656 0.0021997 -4.88918e-05 -9.89044e-05 0.00287261 0.00360037 -0.000268441 -0.00292553 -0.0037844 0.000186839 -0.000385767 0.000493112 -0.000420384 0.000251938 0.00390625 0.00773121 0.0130208 -0.000595238 0.00236014 0.000389518 0.00553653 0.00276946 0.0108333 -0.00164591
internal_weight=13109 6493 1887 863 251 6616 1024 3330 767 3286 2563 1913 3213 470 436 2743 2171 1597 1457 1290 320 173 96 147 572 353 219 167 60 281
internal_count=13109 6493 1887 863 251 6616 1024 3330 767 3286 2563 1913 3213 470 436 2743 2171 1597 1457 1290 320 173 96 147 572 353 219 167 60 281
is_linear=0
shrinkage=0.05


Tree=30
num_leaves=31
num_cat=0
split_feature=5 19 23 19 19 17 24 17 24 0 10 10 19 0 10 15 8 9 9 17 12 19 8 8 15 0 0 19 10 13
split_gain=142.062 17.4263 3.62402 5.2421 5.70509 3.07702 2.91541 2.15453 1.47856 1.40575 2.02889 1.3319 1.63405 1.40453 2.24573 1.51512 1.54301 1.72954 1.3847 2.27726 1.33184 1.72207 1.32065 1.62803 1.81066 1.37206 2.33081 1.27578 1.62854 1.19016
threshold=1.0000000180025095e-35 45.500000000000007 3.5000000000000004 51.500000000000007 59.500000000000007 7.5000000000000009 2.2500000000000004 9.5000000000000018 4.5000000000000009 2.5833333333333335 86.700000000000003 82.90000000000002 54.500000000000007 4.166666666666667 84.366666666666688 8.5277777777777803 0.045500000000000013 10.900000000000002 7.5500000000000007 9.5000000000000018 4.5857142857142863 61.500000000000007 0.21450000000000005 0.14450000000000005 7.3166666666666673 6.166666666666667 6.5833333333333348 43.500000000000007 87.77500000000002 0.051180555555555562
decision_type=2 2 2 2 2 2 2 2 2 2 2 2 2 2 2 2 2 2 2 2 2 2 2 2 2 2 2 2 2 2
left_child=1 -1 -3 -4 -5 22 7 9 11 -7 -11 18 13 14 -13 -15 -17 -18 -8 -20 21 27 23 25 -25 -2 -27 -9 -29 -14
right_child=5 2 3 4 -6 6 8 20 -10 10 -12 12 29 15 -16 16 17 -19 19 -21 -22 -23 -24 24 -26 26 -28 28 -30 -31
leaf_value=-0.010731938197146879 -0.00093465559024898679 -0.010731938197146879 -0.010731938197146879 0.0024440665261402429 -0.01142541212995146 0.075416531755814642 -0.014043150976813336 -0.040379417155829066 -0.019183204185711612 0.12410091028556765 0.16262558622069351 0.08365759573357133 0.085176660577251109 -0.017102564124512259 0.026934647764175486 -0.027978921891342101 0.065351292267499902 0.019330684024279867 0.081892285218269745 -0.0079649532269798207 0.12211742850017436 -0.048104976073453737 -0.0065443983557620716 0.027474800832641769 0.17067408064253614 0.12924656698530521 0.011225349823558434 -0.0073587571035335642 0.11342242447839723 0.065079175123145455
leaf_weight=4582 2732 1478 131 118 125 47 435 35 176 39 32 30 128 270 884 97 43 59 45 107 138 55 202 116 44 31 147 103 136 528
leaf_count=4582 2732 1478 131 118 125 47 435 35 176 39 32 30 128 270 884 97 43 59 45 107 138 55 202 116 44 31 147 103 136 528
internal_value=-0.00419403 -0.00949254 -0.00539957 -0.00100267 0.00334362 0.000925439 0.00198184 0.00519231 0.00131156 0.0112288 0.015669 0.00160891 0.00221309 0.00123825 0.00237965 -0.000986141 0.00232412 0.00661765 -0.000489779 0.00361842 0.00366702 0.00193769 -0.000168093 8.95765e-05 0.005 -0.000180412 0.00407303 0.00355839 0.00486402 0.00426829
internal_weight=13093 6434 1852 374 243 6659 3387 585 2802 118 71 2626 2039 1383 914 469 199 102 587 152 467 329 3272 3070 160 2910 178 274 239 656
internal_count=13093 6434 1852 374 243 6659 3387 585 2802 118 71 2626 2039 1383 914 469 199 102 587 152 467 329 3272 3070 160 2910 178 274 239 656
is_linear=0
shrinkage=0.05


Tree=31
num_leaves=31
num_cat=0
split_feature=4 19 23 19 19 17 24 4 17 19 2 2 3 15 0 1 2 8 19 12 14 8 1 19 0 16 15 15 3 19
split_gain=140.428 17.4263 3.62402 5.2421 5.70509 2.74826 2.3808 2.28871 1.86508 1.78958 2.02925 1.82751 1.5729 1.69971 1.56621 1.6468 1.3392 1.32065 1.70802 1.86059 3.84922 2.8995 2.14109 1.54964 1.67053 1.55158 1.66665 1.4379 2.5239 2.15711
threshold=1.0000000180025095e-35 45.500000000000007 3.5000000000000004 51.500000000000007 59.500000000000007 7.5000000000000009 2.2500000000000004 81.166666666666671 9.5000000000000018 44.500000000000007 0.041666666666666678 1.0000000180025095e-35 3.1666666666666674 5.3166666666666673 2.1666666666666674 0.068333333333333343 0.045833333333333344 0.21450000000000005 56.500000000000007 2.8452380952380958 0.11316666666666669 0.15300000000000005 0.074166666666666686 61.500000000000007 3.4166666666666674 84.612500000000011 4.4142857142857155 4.5277777777777786 4.416666666666667 54.500000000000007
decision_type=2 2 2 2 2 2 2 2 2 2 2 2 2 2 2 2 2 2 2 2 2 2 2 2 2 2 2 2 2 2
left_child=1 -1 -3 -4 -5 17 8 -8 14 -9 11 -11 -12 -14 -7 -16 -15 18 27 20 22 23 -20 25 -25 26 -21 28 -2 -29
right_child=5 2 3 4 -6 6 7 9 -10 10 12 -13 13 16 15 -17 -18 -19 19 21 -22 -23 -24 24 -26 -27 -28 29 -30 -31
leaf_value=-0.010195341287289534 -0.0014106535092830886 -0.010195341287289534 -0.010195341287289534 0.0023218631998332298 -0.010854141523453887 0.057186693560161483 -0.011404511544742419 -0.0076028612489315861 0.061401315107685983 -0.00015669112823990528 0.12403386162508673 0.068342385264136857 -0.041764648428462461 -0.057281210946806542 0.14108842961929571 0.17279907222918844 0.02628632470551856 -0.0062171784379739699 0.14779470584428617 0.051594570540084095 -0.014469479562091514 0.17604333888879492 0.024478135858052898 -0.025322354376920542 0.0057921966760708767 -0.015158778462273648 0.11108874851489992 0.00022516776404528651 -0.021079128088928058 0.087571695008928724
leaf_weight=4582 710 1478 131 118 125 33 540 466 467 165 38 613 131 34 38 47 815 202 32 47 38 30 69 97 123 59 32 1625 147 61
leaf_count=4582 710 1478 131 118 125 33 540 466 467 165 38 613 131 34 38 47 815 202 32 47 38 30 69 97 123 59 32 1625 147 61
internal_value=-0.00422459 -0.00949254 -0.00539957 -0.00100267 0.00334362 0.00086537 0.00186374 0.00125803 0.00476496 0.00195623 0.00267261 0.00459512 0.00120334 0.000816327 0.0103814 0.0139706 0.00163428 -0.000168093 8.95765e-05 0.00268027 0.00764388 0.000902062 0.0127475 -0.000349162 -0.00295455 0.00380435 0.00838608 -0.000447306 -0.00211494 0.000400356
internal_weight=13093 6434 1852 374 243 6659 3387 2802 585 2262 1796 778 1018 980 118 85 849 3272 3070 527 139 388 101 358 220 138 79 2543 857 1686
internal_count=13093 6434 1852 374 243 6659 3387 2802 585 2262 1796 778 1018 980 118 85 849 3272 3070 527 139 388 101 358 220 138 79 2543 857 1686
is_linear=0
shrinkage=0.05


Tree=32
num_leaves=31
num_cat=0
split_feature=4 19 23 19 19 4 12 14 24 24 4 12 17 24 0 10 4 16 2 8 7 11 16 8 4 8 15 7 7 7
split_gain=136.185 17.4263 3.62402 5.2421 5.70509 2.45292 2.21996 2.21427 1.43572 1.43484 1.55904 1.3744 1.59339 1.70364 2.01593 1.96185 2.24362 1.53886 1.5054 2.0353 1.79388 1.58824 1.37627 1.3672 1.60836 2.19951 1.35424 1.33034 1.35816 1.62455
threshold=1.0000000180025095e-35 45.500000000000007 3.5000000000000004 51.500000000000007 59.500000000000007 77.583333333333357 1.8452380952380956 0.18683333333333338 4.5000000000000009 2.7500000000000004 77.166666666666671 7.5277777777777786 5.5000000000000009 2.2500000000000004 7.166666666666667 87.550000000000011 84.166666666666671 87.414285714285725 1.0000000180025095e-35 0.014500000000000004 0.0026666666666666674 2.5000000000000004 88.436507936507951 0.015500000000000002 83.833333333333357 0.039000000000000014 8.0500000000000025 0.50900000000000012 0.39675000000000005 0.19900000000000004
decision_type=2 2 2 2 2 2 2 2 2 2 2 2 2 2 2 2 2 2 2 2 2 2 2 2 2 2 2 2 2 2
left_child=1 -1 -3 -4 -5 7 -7 9 11 -2 -11 12 18 15 27 16 -14 -17 -8 20 21 -20 -19 -21 25 -25 -13 28 29 -15
right_child=5 2 3 4 -6 6 8 -9 -10 10 -12 26 13 14 -16 17 -18 22 19 23 -22 -23 -24 24 -26 -27 -28 -29 -30 -31
leaf_value=-0.0096855742229250575 0.023183213440150258 -0.0096855742229250575 -0.0096855742229250575 0.0022057700398415703 -0.010311434447281193 -0.0071956286207804148 -0.043219198641650185 -0.0090551388025276441 -0.014688335895540526 -0.0015324775180441397 -0.014705405938391154 0.042933706953207418 0.10988773762120858 0.022710337323384278 -0.030295837222634094 0.13100752807502578 -0.030780433767457496 -0.03053260414189727 -0.0019123910212289624 -0.028025112333489522 0.08508296157833091 0.043841770531985735 0.095905576055860697 0.059262595518424846 -0.0033895889381557968 0.0061504843336025244 0.1989537320451594 0.1356430696805587 -0.07110096125951601 0.076935763510431257
leaf_weight=4582 260 1478 131 118 125 335 162 170 230 1265 51 37 115 2089 186 71 127 49 54 30 62 48 237 49 474 157 31 43 39 288
leaf_count=4582 260 1478 131 118 125 335 162 170 230 1265 51 37 115 2089 186 71 127 49 54 30 62 48 237 49 474 157 31 43 39 288
internal_value=-0.00430478 -0.00949254 -0.00539957 -0.00100267 0.00334362 0.000707689 0.00127977 -0.000902062 0.00156728 -0.000317259 -0.000987842 0.00177093 0.00165888 0.00220407 0.00165879 0.00461185 0.00113636 0.00696779 -4.82625e-05 0.000772311 0.00579268 0.00171569 0.00533217 -0.000387324 7.35294e-05 0.00376214 0.00882353 0.00203843 0.00188328 0.00203513
internal_weight=13093 6434 1852 374 243 6659 4913 1746 4578 1576 1316 4348 4280 3244 2645 599 242 357 1036 874 164 102 286 710 680 206 68 2459 2416 2377
internal_count=13093 6434 1852 374 243 6659 4913 1746 4578 1576 1316 4348 4280 3244 2645 599 242 357 1036 874 164 102 286 710 680 206 68 2459 2416 2377
is_linear=0
shrinkage=0.05


Tree=33
num_leaves=31
num_cat=0
split_feature=4 19 23 19 19 5 24 12 8 23 2 19 15 0 13 4 10 4 7 14 1 0 8 12 2 0 7 12 12 9
split_gain=133.79 17.4263 3.62402 5.2421 5.70509 2.49793 2.50124 2.34666 1.96237 1.94793 1.73192 1.67899 1.65706 2.04743 2.03334 1.96105 1.52656 2.97006 1.59387 2.11869 1.6748 1.52077 1.56688 2.75558 1.48492 1.66983 1.44519 1.38843 1.83476 2.11815
threshold=1.0000000180025095e-35 45.500000000000007 3.5000000000000004 51.500000000000007 59.500000000000007 2.5000000000000004 2.2500000000000004 7.6458333333333348 0.24900000000000003 3.5000000000000004 0.0041666666666666675 43.500000000000007 5.6833333333333345 4.166666666666667 0.18354166666666671 75.583333333333357 87.550000000000011 84.166666666666671 0.26633333333333342 0.060500000000000005 0.081666666666666679 7.166666666666667 0.077750000000000027 4.6833333333333345 0.031666666666666676 4.166666666666667 0.13775000000000004 3.6458333333333335 3.3875000000000006 3.7083333333333335
decision_type=2 2 2 2 2 2 2 2 2 2 2 2 2 2 2 2 2 2 2 2 2 2 2 2 2 2 2 2 2 2
left_child=1 -1 -3 -4 -5 9 8 12 11 -2 -11 -7 14 -14 26 -16 17 -13 19 -18 -21 22 24 -24 25 -17 27 28 -8 -30
right_child=5 2 3 4 -6 6 7 -9 -10 10 -12 16 13 -15 15 21 18 -19 -20 20 -22 -23 23 -25 -26 -27 -28 -29 29 -31
leaf_value=-0.0092012955117788033 -0.0015568951891150595 -0.0092012955117788033 -0.0092012955117788033 0.0020954815378494917 -0.0097958627249171339 -0.010534157148484675 -0.0065293282436791559 0.23227327530063704 -0.048652574446847147 -0.0053751002896670567 0.011847068313633181 0.072377876027309662 0.025361751178747262 -0.0030974308424152499 -0.014872249791350201 0.0003404455791005623 0.081400203218501943 -0.030219348276575932 -0.036501603442627963 0.14026071632519416 0.12611474757177685 -0.041804089261295307 0.19426171565576672 0.027144156069714032 -0.015159059620645572 0.1538748329889047 -0.023512897231754617 -0.010366771460081005 0.19871562656200289 -0.015912521512443163
leaf_weight=4582 964 1478 131 118 125 127 703 32 35 38 87 294 1737 1019 225 65 200 133 36 65 47 40 56 44 90 50 125 381 32 34
leaf_count=4582 964 1478 131 118 125 127 703 32 35 38 87 294 1737 1019 225 65 200 133 36 65 47 40 56 44 90 50 125 381 32 34
internal_value=-0.00435061 -0.00949254 -0.00539957 -0.00100267 0.00334362 0.000617585 0.00104578 0.000569286 0.00340181 -0.00157254 0.0043 0.00385255 0.00047544 0.00125181 -0.000684282 0.00179825 0.00472581 0.00272248 0.00718391 0.00833333 0.0138393 0.00416667 0.00536885 0.0105 0.00286585 0.00663043 -0.00179412 -0.00123913 -1.62549e-05 0.00795455
internal_weight=13093 6434 1852 374 243 6659 5570 4633 937 1089 125 902 4601 2756 1845 570 775 427 348 312 112 345 305 100 205 115 1275 1150 769 66
internal_count=13093 6434 1852 374 243 6659 5570 4633 937 1089 125 902 4601 2756 1845 570 775 427 348 312 112 345 305 100 205 115 1275 1150 769 66
is_linear=0
shrinkage=0.05


Tree=34
num_leaves=31
num_cat=0
split_feature=4 19 23 19 19 4 14 12 12 15 17 24 10 6 10 1 8 1 0 1 0 7 8 7 0 16 13 1 6 16
split_gain=130.629 17.4263 3.62402 5.2421 5.70509 2.25282 2.33928 2.29337 1.43187 1.80625 1.26427 1.69328 2.0985 2.11822 1.5911 1.5311 2.49246 3.48053 1.75435 3.77322 3.40891 2.07614 1.55198 3.03329 1.43386 1.40903 1.37964 1.70535 2.51912 2.48515
threshold=1.0000000180025095e-35 45.500000000000007 3.5000000000000004 51.500000000000007 59.500000000000007 77.583333333333357 0.18683333333333338 1.8452380952380956 7.5277777777777786 8.0500000000000025 5.5000000000000009 2.2500000000000004 87.550000000000011 2.5500000000000003 80.90000000000002 0.008333333333333335 0.017083333333333336 0.11833333333333336 2.8333333333333335 0.031666666666666676 2.1666666666666674 0.019000000000000006 0.024500000000000004 0.006333333333333334 7.166666666666667 87.414285714285725 0.17527777777777781 0.1458333333333334 5.1000000000000005 89.183333333333351
